{"learner":{"attributes":{"scikit_learn":"{\"_estimator_type\": \"classifier\"}"},"feature_names":[],"feature_types":[],"gradient_booster":{"model":{"gbtree_model_param":{"num_parallel_tree":"1","num_trees":"300"},"iteration_indptr":[0,1,2,3,4,5,6,7,8,9,10,11,12,13,14,15,16,17,18,19,20,21,22,23,24,25,26,27,28,29,30,31,32,33,34,35,36,37,38,39,40,41,42,43,44,45,46,47,48,49,50,51,52,53,54,55,56,57,58,59,60,61,62,63,64,65,66,67,68,69,70,71,72,73,74,75,76,77,78,79,80,81,82,83,84,85,86,87,88,89,90,91,92,93,94,95,96,97,98,99,100,101,102,103,104,105,106,107,108,109,110,111,112,113,114,115,116,117,118,119,120,121,122,123,124,125,126,127,128,129,130,131,132,133,134,135,136,137,138,139,140,141,142,143,144,145,146,147,148,149,150,151,152,153,154,155,156,157,158,159,160,161,162,163,164,165,166,167,168,169,170,171,172,173,174,175,176,177,178,179,180,181,182,183,184,185,186,187,188,189,190,191,192,193,194,195,196,197,198,199,200,201,202,203,204,205,206,207,208,209,210,211,212,213,214,215,216,217,218,219,220,221,222,223,224,225,226,227,228,229,230,231,232,233,234,235,236,237,238,239,240,241,242,243,244,245,246,247,248,249,250,251,252,253,254,255,256,257,258,259,260,261,262,263,264,265,266,267,268,269,270,271,272,273,274,275,276,277,278,279,280,281,282,283,284,285,286,287,288,289,290,291,292,293,294,295,296,297,298,299,300],"tree_info":[0,0,0,0,0,0,0,0,0,0,0,0,0,0,0,0,0,0,0,0,0,0,0,0,0,0,0,0,0,0,0,0,0,0,0,0,0,0,0,0,0,0,0,0,0,0,0,0,0,0,0,0,0,0,0,0,0,0,0,0,0,0,0,0,0,0,0,0,0,0,0,0,0,0,0,0,0,0,0,0,0,0,0,0,0,0,0,0,0,0,0,0,0,0,0,0,0,0,0,0,0,0,0,0,0,0,0,0,0,0,0,0,0,0,0,0,0,0,0,0,0,0,0,0,0,0,0,0,0,0,0,0,0,0,0,0,0,0,0,0,0,0,0,0,0,0,0,0,0,0,0,0,0,0,0,0,0,0,0,0,0,0,0,0,0,0,0,0,0,0,0,0,0,0,0,0,0,0,0,0,0,0,0,0,0,0,0,0,0,0,0,0,0,0,0,0,0,0,0,0,0,0,0,0,0,0,0,0,0,0,0,0,0,0,0,0,0,0,0,0,0,0,0,0,0,0,0,0,0,0,0,0,0,0,0,0,0,0,0,0,0,0,0,0,0,0,0,0,0,0,0,0,0,0,0,0,0,0,0,0,0,0,0,0,0,0,0,0,0,0,0,0,0,0,0,0,0,0,0,0,0,0,0,0,0,0,0,0,0,0,0,0,0,0,0,0,0,0,0,0],"trees":[{"base_weights":[-7.2261547E-3,-6.493541E-1,5.207812E-1,-1.3339879E-1,-1.0954853E0,7.3896235E-1,-4.4150653E-1,-8.3833534E-1,2.2233257E-1,-1.2969804E0,-3.6183488E-1,-2.9237014E-1,8.5930794E-1,8.1330585E-1,-6.816966E-1,-1.2965455E0,-2.6572306E-2,-3.95146E-1,6.9916874E-1,-1.4644136E0,-6.603763E-1,4.27581E-1,-9.8065555E-1,-9.9525833E-1,3.581844E-1,1.2749816E0,5.835984E-1,-7.252433E-1,1.4704024E0,-2.5415313E-1,-1.4471161E0,-1.5055554E0,4.0944335E-1,6.1145824E-1,-1.0488021E0,6.6675055E-1,-8.6973757E-1,-1.0550107E0,8.6492354E-1,-1.624046E0,-5.572041E-1,-1.1180578E0,3.2991552E-1,-8.7878786E-2,7.170635E-1,-1.2411628E0,9.106185E-1,-1.3489105E0,8.4602666E-1,-9.192202E-1,1.0462031E0,1.2460038E-1,1.3722147E0,7.553818E-2,1.023905E0,6.644968E-2,-1.4561319E0,-3.1186765E-2,1.736967E0,-6.250923E-1,6.288658E-1,7.2362554E-1,-1.659055E0,1.3195789E-2,-8.3104126E-2,8.2887314E-2,-5.702591E-2,5.363971E-2,-3.9106E-2,-9.428572E-2,9.390264E-3,-5.4542728E-2,5.5413105E-2,-7.625602E-2,-3.7986746E-3,-8.071958E-2,4.970726E-2,5.8092523E-2,-6.4989203E-3,-8.726249E-2,-3.384517E-2,-6.508934E-2,9.493666E-3,-8.139656E-2,-9.672858E-3,4.2174924E-2,-6.624423E-2,-4.907768E-2,5.2335333E-2,-7.359331E-2,4.0249713E-2,-2.7207864E-2,8.0498695E-2,-7.748132E-2,5.7635166E-2,-3.1186765E-2,8.0498695E-2,2.8713692E-2,-8.209099E-2,-8.0000006E-2,6.6419534E-2,5.4562993E-2,-4.017624E-2,7.213042E-2,1.0627712E-3,-3.394854E-2,2.6901966E-2,5.489257E-2,-3.8312335E-2,-8.82353E-2,-2.2740588E-2,2.0405056E-2,9.444798E-2,-8.300163E-2,-1.1637136E-2,-8.571429E-2,5.0160594E-2,8.111258E-2,-2.7207864E-2,-9.2835285E-2,1.2224531E-2],"categories":[],"categories_nodes":[],"categories_segments":[],"categories_sizes":[],"default_left":[0,0,0,0,0,0,0,0,0,0,0,0,0,0,0,0,0,0,0,0,0,0,0,0,0,0,0,0,0,0,0,0,0,0,0,0,0,0,0,0,0,0,0,0,0,0,0,0,0,0,0,0,0,0,0,0,0,0,0,0,0,0,0,0,0,0,0,0,0,0,0,0,0,0,0,0,0,0,0,0,0,0,0,0,0,0,0,0,0,0,0,0,0,0,0,0,0,0,0,0,0,0,0,0,0,0,0,0,0,0,0,0,0,0,0,0,0,0,0,0,0],"id":0,"left_children":[1,3,5,7,9,11,13,15,17,19,21,23,25,27,29,31,33,35,37,39,41,43,45,47,49,51,53,55,57,59,61,63,65,67,69,71,73,75,77,79,81,83,85,-1,87,89,91,93,95,97,99,101,103,105,107,-1,109,-1,111,113,115,117,119,-1,-1,-1,-1,-1,-1,-1,-1,-1,-1,-1,-1,-1,-1,-1,-1,-1,-1,-1,-1,-1,-1,-1,-1,-1,-1,-1,-1,-1,-1,-1,-1,-1,-1,-1,-1,-1,-1,-1,-1,-1,-1,-1,-1,-1,-1,-1,-1,-1,-1,-1,-1,-1,-1,-1,-1,-1,-1],"loss_changes":[9.878085E2,3.0246716E2,3.3600272E2,1.533461E2,1.0373364E2,1.6206018E2,8.980565E1,7.623544E1,1.200272E2,5.7936768E1,7.529309E1,6.2991158E1,1.3308179E2,4.962616E1,8.114891E1,4.734346E1,4.9559612E1,9.0215355E1,6.7745384E1,6.2341614E1,5.3352768E1,4.4305065E1,4.3611305E1,4.418676E1,6.412813E1,5.1821045E1,1.5738588E2,2.4523325E1,2.0056335E1,5.3139874E1,4.217386E1,3.2832336E1,3.108532E1,3.093466E1,3.0565662E1,4.4279827E1,6.405642E1,2.486773E1,6.2352783E1,4.1391968E1,3.744429E1,3.7483376E1,3.317715E1,0E0,3.5070488E1,3.7158875E1,1.2083231E1,2.9823822E1,1.3653249E1,2.866939E1,3.7355824E1,3.4364475E1,4.0718384E1,1.14784096E2,5.074829E1,0E0,2.773426E0,0E0,5.3721466E0,4.5863995E1,4.3941673E1,1.0701107E1,3.1095398E1,0E0,0E0,0E0,0E0,0E0,0E0,0E0,0E0,0E0,0E0,0E0,0E0,0E0,0E0,0E0,0E0,0E0,0E0,0E0,0E0,0E0,0E0,0E0,0E0,0E0,0E0,0E0,0E0,0E0,0E0,0E0,0E0,0E0,0E0,0E0,0E0,0E0,0E0,0E0,0E0,0E0,0E0,0E0,0E0,0E0,0E0,0E0,0E0,0E0,0E0,0E0,0E0,0E0,0E0,0E0,0E0,0E0,0E0],"parents":[2147483647,0,0,1,1,2,2,3,3,4,4,5,5,6,6,7,7,8,8,9,9,10,10,11,11,12,12,13,13,14,14,15,15,16,16,17,17,18,18,19,19,20,20,21,21,22,22,23,23,24,24,25,25,26,26,27,27,28,28,29,29,30,30,31,31,32,32,33,33,34,34,35,35,36,36,37,37,38,38,39,39,40,40,41,41,42,42,44,44,45,45,46,46,47,47,48,48,49,49,50,50,51,51,52,52,53,53,54,54,56,56,58,58,59,59,60,60,61,61,62,62],"right_children":[2,4,6,8,10,12,14,16,18,20,22,24,26,28,30,32,34,36,38,40,42,44,46,48,50,52,54,56,58,60,62,64,66,68,70,72,74,76,78,80,82,84,86,-1,88,90,92,94,96,98,100,102,104,106,108,-1,110,-1,112,114,116,118,120,-1,-1,-1,-1,-1,-1,-1,-1,-1,-1,-1,-1,-1,-1,-1,-1,-1,-1,-1,-1,-1,-1,-1,-1,-1,-1,-1,-1,-1,-1,-1,-1,-1,-1,-1,-1,-1,-1,-1,-1,-1,-1,-1,-1,-1,-1,-1,-1,-1,-1,-1,-1,-1,-1,-1,-1,-1,-1],"split_conditions":[3.002892E-2,5.7843246E-2,6.209405E-2,1.1953436E-2,5.683393E-2,-3.3679087E-2,-6.0198743E-2,5.125042E-3,-7.3743644E-3,4.335277E-2,-2.1255003E-2,2.4512207E-2,-6.1805807E-2,3.377715E-2,4.9100595E-4,7.5786404E-2,-9.715019E-3,-3.496161E-2,-3.0135136E-2,5.4806694E-2,2.7673813E-2,-3.6536146E-2,6.488469E-2,7.185778E-2,-5.3294092E-2,-2.9935798E-2,1.0698345E-3,-7.306333E-2,-4.6110615E-2,8.636474E-3,-5.512809E-2,-7.398371E-2,-4.340878E-2,-1.5959987E-2,4.628437E-3,-1.1748184E-2,2.6619393E-2,6.537832E-2,3.5063777E-2,4.168556E-2,-4.624805E-3,2.8237741E-2,1.4972516E-2,-8.7878786E-2,-7.8359134E-2,7.596237E-2,-2.6147405E-2,1.10240735E-1,4.1144073E-2,-2.3759743E-2,-2.9226122E-2,1.2044564E-2,6.504602E-2,2.7028383E-3,6.224303E-2,6.644968E-2,1.8913815E-2,-3.1186765E-2,-7.684791E-2,1.2129292E-2,-3.2985263E-2,-3.507428E-2,6.731719E-2,1.3195789E-2,-8.3104126E-2,8.2887314E-2,-5.702591E-2,5.363971E-2,-3.9106E-2,-9.428572E-2,9.390264E-3,-5.4542728E-2,5.5413105E-2,-7.625602E-2,-3.7986746E-3,-8.071958E-2,4.970726E-2,5.8092523E-2,-6.4989203E-3,-8.726249E-2,-3.384517E-2,-6.508934E-2,9.493666E-3,-8.139656E-2,-9.672858E-3,4.2174924E-2,-6.624423E-2,-4.907768E-2,5.2335333E-2,-7.359331E-2,4.0249713E-2,-2.7207864E-2,8.0498695E-2,-7.748132E-2,5.7635166E-2,-3.1186765E-2,8.0498695E-2,2.8713692E-2,-8.209099E-2,-8.0000006E-2,6.6419534E-2,5.4562993E-2,-4.017624E-2,7.213042E-2,1.0627712E-3,-3.394854E-2,2.6901966E-2,5.489257E-2,-3.8312335E-2,-8.82353E-2,-2.2740588E-2,2.0405056E-2,9.444798E-2,-8.300163E-2,-1.1637136E-2,-8.571429E-2,5.0160594E-2,8.111258E-2,-2.7207864E-2,-9.2835285E-2,1.2224531E-2],"split_indices":[68,99,6,21,200,3,67,125,144,265,377,250,55,307,350,196,131,377,344,344,82,225,278,137,256,207,125,8,152,105,128,67,152,81,336,301,10,3,169,105,125,38,182,0,215,364,41,304,115,194,155,380,173,222,169,0,0,0,226,257,200,118,192,0,0,0,0,0,0,0,0,0,0,0,0,0,0,0,0,0,0,0,0,0,0,0,0,0,0,0,0,0,0,0,0,0,0,0,0,0,0,0,0,0,0,0,0,0,0,0,0,0,0,0,0,0,0,0,0,0,0],"split_type":[0,0,0,0,0,0,0,0,0,0,0,0,0,0,0,0,0,0,0,0,0,0,0,0,0,0,0,0,0,0,0,0,0,0,0,0,0,0,0,0,0,0,0,0,0,0,0,0,0,0,0,0,0,0,0,0,0,0,0,0,0,0,0,0,0,0,0,0,0,0,0,0,0,0,0,0,0,0,0,0,0,0,0,0,0,0,0,0,0,0,0,0,0,0,0,0,0,0,0,0,0,0,0,0,0,0,0,0,0,0,0,0,0,0,0,0,0,0,0,0,0],"sum_hessian":[2.911477E3,1.31366E3,1.5978169E3,6.097625E2,7.038976E2,1.3026882E3,2.9512863E2,2.0404977E2,4.0571274E2,5.516269E2,1.5227066E2,1.3597614E2,1.1667122E3,4.7032597E1,2.4809604E2,1.3004628E2,7.4003494E1,1.7685973E2,2.2885303E2,4.3572614E2,1.1590076E2,6.704802E1,8.522264E1,6.5104485E1,7.087165E1,4.6381577E2,7.0289636E2,1.4044529E1,3.2988068E1,1.6003609E2,8.805995E1,1.15957214E2,1.4089057E1,4.58117E1,2.8191793E1,5.450349E1,1.2235623E2,1.9294529E1,2.095585E2,3.6985623E2,6.58699E1,7.9178116E1,3.672264E1,7.25E0,5.979802E1,7.5207214E1,1.0015425E1,5.4839058E1,1.0265425E1,2.4691793E1,4.617986E1,3.632538E1,4.274904E2,3.2688388E2,3.760125E2,3.4708962E0,1.0573632E1,3.5736322E0,2.9414434E1,1.1290076E2,4.713533E1,7.6181607E0,8.0441795E1,9.36816E0,1.0658906E2,7.7654247E0,6.3236322E0,3.45908E1,1.1220897E1,1.65E1,1.16917925E1,1.06472645E1,4.3856228E1,6.651543E1,5.58408E1,1.5323632E1,3.9708962E0,1.6126222E2,4.8296276E1,3.2714902E2,4.270722E1,3.261816E1,3.3251747E1,5.054453E1,2.8633585E1,2.839901E1,8.323632E0,9.3972645E0,5.0400757E1,6.783906E1,7.3681607E0,3.3236322E0,6.6917925E0,5.111816E1,3.7208962E0,3.5736322E0,6.6917925E0,8.11816E0,1.6573631E1,4E0,4.217986E1,1.7707218E1,1.861816E1,4.0625406E2,2.123632E1,1.2404802E2,2.0283586E2,3.61468E2,1.4544529E1,7.5E0,3.0736322E0,3.3972642E0,2.601717E1,3.0147264E1,8.2753494E1,6E0,4.113533E1,4.2945285E0,3.3236322E0,7.289726E1,7.5445285E0],"tree_param":{"num_deleted":"0","num_feature":"384","num_nodes":"121","size_leaf_vector":"1"}},{"base_weights":[7.693825E-4,4.1707456E-1,-6.785391E-1,-4.559692E-1,6.695687E-1,4.7986197E-1,-9.1494244E-1,2.5157574E-1,-7.6963145E-1,7.679148E-1,-7.348197E-1,-5.0203884E-1,9.8059034E-1,-1.1737782E0,-2.6677275E-1,-6.815097E-1,8.724733E-1,-2.4658604E-1,-1.2465354E0,4.3534452E-1,1.1328968E0,-1.3663491E0,6.9343466E-1,1.0436045E0,-9.8790526E-1,1.1319329E0,-1.2375163E0,-1.2557075E0,5.407907E-1,2.433548E-1,-9.4761986E-1,-1.1535059E0,7.861331E-1,-1.3509629E0,1.1998279E0,-8.0796593E-1,3.6920825E-1,1.1041287E-1,-1.4637271E0,6.692489E-2,9.0501904E-1,-1.089977E0,1.1726975E0,-9.628666E-2,-5.129715E-1,1.2048779E0,-5.4299664E-2,1.499533E0,-2.7047107E-2,-1.3637403E0,3.257984E-1,1.2762295E0,-5.304409E-1,-8.058241E-2,-2.1402678E-2,9.1904014E-1,-1.296674E0,-1.411477E0,1.61649E0,6.276915E-1,-7.480232E-1,5.386734E-1,-1.3370736E0,-8.057143E-2,2.125982E-2,-1.9630998E-2,8.666408E-2,-1.9657742E-2,-8.512113E-2,-7.63275E-2,6.921377E-2,-9.540875E-4,-8.2479484E-2,3.882625E-2,-3.5634976E-2,-8.34456E-2,4.536207E-2,-9.124448E-2,-3.0766359E-2,1.9137638E-2,-3.0487237E-2,-5.37679E-2,5.0528347E-2,2.6771108E-2,-8.77261E-2,2.54266E-3,6.2211897E-2,5.13329E-2,-7.006651E-2,7.622499E-2,-2.7320584E-2,8.838647E-2,2.5873158E-2,-9.45358E-2,1.3979214E-2,-7.735057E-2,6.427554E-2,-4.0712643E-2,6.847687E-2,6.6757664E-2,-8.441015E-2,8.0832586E-2,-3.0950267E-2,-6.7993976E-2,5.707681E-3,-2.0136295E-2,-8.643293E-2,1.945735E-2,9.187559E-2,5.0211478E-2,-1.3414907E-2,4.8564676E-2,-7.442757E-2,-8.03582E-2,5.5049844E-2,-8.021312E-2,7.724362E-3],"categories":[],"categories_nodes":[],"categories_segments":[],"categories_sizes":[],"default_left":[0,0,0,0,0,0,0,0,0,0,0,0,0,0,0,0,0,0,0,0,0,0,0,0,0,0,0,0,0,0,0,0,0,0,0,0,0,0,0,0,0,0,0,0,0,0,0,0,0,0,0,0,0,0,0,0,0,0,0,0,0,0,0,0,0,0,0,0,0,0,0,0,0,0,0,0,0,0,0,0,0,0,0,0,0,0,0,0,0,0,0,0,0,0,0,0,0,0,0,0,0,0,0,0,0,0,0,0,0,0,0,0,0,0,0,0,0],"id":1,"left_children":[1,3,5,7,9,11,13,15,17,19,21,23,25,27,29,31,33,35,37,39,41,43,45,47,49,51,53,55,57,59,61,63,65,67,69,71,73,75,77,79,81,83,85,-1,87,89,-1,91,-1,93,95,97,99,-1,-1,101,103,105,107,109,111,113,115,-1,-1,-1,-1,-1,-1,-1,-1,-1,-1,-1,-1,-1,-1,-1,-1,-1,-1,-1,-1,-1,-1,-1,-1,-1,-1,-1,-1,-1,-1,-1,-1,-1,-1,-1,-1,-1,-1,-1,-1,-1,-1,-1,-1,-1,-1,-1,-1,-1,-1,-1,-1,-1,-1],"loss_changes":[8.3438586E2,4.03565E2,3.07451E2,9.140187E1,1.9660284E2,9.4237595E1,1.559519E2,7.416324E1,7.078186E1,1.6057776E2,8.519435E1,4.9886456E1,4.3903954E1,9.414014E1,9.299915E1,3.644238E1,5.7437153E1,4.7716377E1,4.4022995E1,1.2036301E2,5.719568E1,3.0089348E1,2.7973984E1,1.2403009E1,2.513631E1,2.9233612E1,1.9039412E0,5.7790527E1,6.7469955E1,5.8952286E1,6.706154E1,2.903873E1,1.5281274E1,2.8019772E0,3.5993942E1,4.7817398E1,2.9682262E1,3.1946066E1,3.820819E1,8.3813675E1,6.501689E1,1.3507903E1,4.980835E1,0E0,3.8559296E1,1.3837673E1,0E0,2.4369488E0,0E0,3.437039E1,2.3434658E1,2.2539062E1,2.4316725E1,0E0,0E0,1.4231462E1,5.5794556E1,3.0029793E0,4.8405E0,3.776923E1,5.6622334E1,3.134325E1,3.6554337E1,0E0,0E0,0E0,0E0,0E0,0E0,0E0,0E0,0E0,0E0,0E0,0E0,0E0,0E0,0E0,0E0,0E0,0E0,0E0,0E0,0E0,0E0,0E0,0E0,0E0,0E0,0E0,0E0,0E0,0E0,0E0,0E0,0E0,0E0,0E0,0E0,0E0,0E0,0E0,0E0,0E0,0E0,0E0,0E0,0E0,0E0,0E0,0E0,0E0,0E0,0E0,0E0,0E0,0E0],"parents":[2147483647,0,0,1,1,2,2,3,3,4,4,5,5,6,6,7,7,8,8,9,9,10,10,11,11,12,12,13,13,14,14,15,15,16,16,17,17,18,18,19,19,20,20,21,21,22,22,23,23,24,24,25,25,26,26,27,27,28,28,29,29,30,30,31,31,32,32,33,33,34,34,35,35,36,36,37,37,38,38,39,39,40,40,41,41,42,42,44,44,45,45,47,47,49,49,50,50,51,51,52,52,55,55,56,56,57,57,58,58,59,59,60,60,61,61,62,62],"right_children":[2,4,6,8,10,12,14,16,18,20,22,24,26,28,30,32,34,36,38,40,42,44,46,48,50,52,54,56,58,60,62,64,66,68,70,72,74,76,78,80,82,84,86,-1,88,90,-1,92,-1,94,96,98,100,-1,-1,102,104,106,108,110,112,114,116,-1,-1,-1,-1,-1,-1,-1,-1,-1,-1,-1,-1,-1,-1,-1,-1,-1,-1,-1,-1,-1,-1,-1,-1,-1,-1,-1,-1,-1,-1,-1,-1,-1,-1,-1,-1,-1,-1,-1,-1,-1,-1,-1,-1,-1,-1,-1,-1,-1,-1,-1,-1,-1,-1],"split_conditions":[3.7757408E-2,1.4413509E-3,-5.8073524E-2,-5.5928458E-2,9.9944845E-2,-1.5843693E-2,5.037746E-2,1.4433923E-2,-3.8194686E-2,-1.8098438E-2,3.318198E-2,-9.009331E-2,4.915631E-2,8.0575824E-2,-1.9521408E-2,7.459517E-2,-3.1167766E-2,2.7200345E-2,-4.7278177E-2,3.9595667E-2,-4.8322123E-2,3.095575E-3,1.3276194E-3,-4.990048E-3,3.2003462E-2,2.0294553E-2,3.427886E-2,-1.29929E-1,3.15883E-2,7.937428E-2,-4.2561565E-2,6.787505E-2,3.8527913E-2,-1.7673394E-2,-6.0217734E-2,-4.332162E-3,1.3277613E-2,-2.3386635E-2,2.172155E-2,-1.6186344E-2,-4.6176642E-2,1.4342256E-3,-5.626156E-2,-9.628666E-2,-6.797441E-2,8.217328E-3,-5.4299664E-2,5.956871E-3,-2.7047107E-2,3.878197E-2,1.6003894E-2,-6.075991E-2,-3.9785903E-2,-8.058241E-2,-2.1402678E-2,1.5635563E-2,6.839309E-2,-5.098055E-2,6.0804696E-3,4.0307418E-2,-4.4348437E-33,-4.8826504E-2,5.8138575E-2,-8.057143E-2,2.125982E-2,-1.9630998E-2,8.666408E-2,-1.9657742E-2,-8.512113E-2,-7.63275E-2,6.921377E-2,-9.540875E-4,-8.2479484E-2,3.882625E-2,-3.5634976E-2,-8.34456E-2,4.536207E-2,-9.124448E-2,-3.0766359E-2,1.9137638E-2,-3.0487237E-2,-5.37679E-2,5.0528347E-2,2.6771108E-2,-8.77261E-2,2.54266E-3,6.2211897E-2,5.13329E-2,-7.006651E-2,7.622499E-2,-2.7320584E-2,8.838647E-2,2.5873158E-2,-9.45358E-2,1.3979214E-2,-7.735057E-2,6.427554E-2,-4.0712643E-2,6.847687E-2,6.6757664E-2,-8.441015E-2,8.0832586E-2,-3.0950267E-2,-6.7993976E-2,5.707681E-3,-2.0136295E-2,-8.643293E-2,1.945735E-2,9.187559E-2,5.0211478E-2,-1.3414907E-2,4.8564676E-2,-7.442757E-2,-8.03582E-2,5.5049844E-2,-8.021312E-2,7.724362E-3],"split_indices":[6,68,350,252,99,125,68,295,55,256,96,139,149,279,55,1,44,10,329,183,21,11,382,64,122,118,318,315,44,99,208,287,284,340,68,19,341,286,0,242,287,233,278,0,98,43,0,96,0,278,45,379,103,0,0,78,96,11,93,374,223,29,219,0,0,0,0,0,0,0,0,0,0,0,0,0,0,0,0,0,0,0,0,0,0,0,0,0,0,0,0,0,0,0,0,0,0,0,0,0,0,0,0,0,0,0,0,0,0,0,0,0,0,0,0,0,0],"split_type":[0,0,0,0,0,0,0,0,0,0,0,0,0,0,0,0,0,0,0,0,0,0,0,0,0,0,0,0,0,0,0,0,0,0,0,0,0,0,0,0,0,0,0,0,0,0,0,0,0,0,0,0,0,0,0,0,0,0,0,0,0,0,0,0,0,0,0,0,0,0,0,0,0,0,0,0,0,0,0,0,0,0,0,0,0,0,0,0,0,0,0,0,0,0,0,0,0,0,0,0,0,0,0,0,0,0,0,0,0,0,0,0,0,0,0,0,0],"sum_hessian":[2.9484485E3,1.8283528E3,1.1200957E3,4.0997723E2,1.4183756E3,1.8966881E2,9.304269E2,1.2598469E2,2.8399252E2,1.3259739E3,9.240168E1,6.405596E1,1.2561285E2,6.643278E2,2.6609906E2,5.0298473E1,7.568621E1,1.3616754E2,1.4782498E2,6.9493994E2,6.3103394E2,6.4101395E1,2.8300287E1,1.5045413E1,4.901055E1,1.1804805E2,7.564794E0,6.342865E2,3.0041273E1,1.5248878E2,1.1361028E2,3.8220684E1,1.207779E1,9.311867E0,6.6374344E1,7.106767E1,6.509988E1,2.0463959E1,1.2736102E2,3.9009006E2,3.0484988E2,1.0635866E1,6.203981E2,3.7961346E1,2.6140047E1,2.2232971E1,6.0673156E0,1.1725295E1,3.3201184E0,3.807862E1,1.0931931E1,1.0883343E2,9.214625E0,4.495825E0,3.0689695E0,1.1331092E1,6.2295544E2,1.0561409E1,1.9479862E1,1.10151985E2,4.2336796E1,2.3508892E1,9.0101395E1,2.9610928E1,8.609755E0,5.6418366E0,6.4359536E0,3.0684023E0,6.243465E0,3.7448072E0,6.262954E1,3.721107E1,3.38566E1,4.749952E1,1.7600359E1,5.9911737E0,1.4472785E1,8.852508E1,3.883595E1,2.6625357E2,1.2383647E2,1.4960487E1,2.898894E2,3.14293E0,7.492936E0,3.729383E1,5.8310425E2,9.507229E0,1.6632818E1,1.8911074E1,3.3218982E0,8.581693E0,3.143602E0,2.8718672E1,9.359948E0,3.4966044E0,7.435326E0,4.3200407E0,1.0451339E2,3.4699693E0,5.7446556E0,7.7601924E0,3.5708995E0,5.9627814E2,2.6677305E1,3.06938E0,7.492029E0,3.3939257E0,1.6085938E1,7.747321E1,3.2678772E1,1.265154E1,2.9685257E1,4.4955826E0,1.901331E1,7.634913E1,1.3752264E1],"tree_param":{"num_deleted":"0","num_feature":"384","num_nodes":"117","size_leaf_vector":"1"}},{"base_weights":[8.074681E-3,-5.190774E-1,5.286382E-1,-1.41894E-1,-1.1451639E0,7.2200984E-1,-3.3059794E-1,-4.979558E-1,3.4556594E-1,-1.1693958E-1,-1.2770606E0,-3.3260095E-1,8.3550346E-1,2.1410461E-1,-9.9331105E-1,-1.3980715E0,-1.9223084E-1,-5.473055E-1,7.2602654E-1,-6.1293733E-1,1.1000972E0,-1.5970453E0,-8.9962393E-1,-1.3387985E0,1.0197736E-1,1.023318E0,2.4496861E-1,3.505059E-1,-8.665169E-2,4.9200428E-1,-1.1822418E0,3.9877E-1,-1.5828133E0,3.1829852E-1,-8.612441E-1,1.0400804E0,-9.576148E-1,-4.8615557E-1,9.476323E-1,7.5703405E-2,-1.1813649E0,-3.9782032E-2,8.6199306E-2,-1.6545947E0,3.0253282E-1,-1.3410075E-1,-1.2072835E0,-1.7676138E0,4.1990817E-1,-1.0244149E0,6.889665E-1,1.0963876E0,-1.240536E-1,-1.0192126E0,4.7129583E-1,6.3012177E-1,-5.9514546E-1,1.3121239E0,-7.430043E-2,6.7171E-2,-1.4523197E0,-7.617184E-2,7.3631935E-2,-2.8188492E-3,-8.700087E-2,3.5576575E-2,-2.5429254E-2,4.7253203E-2,-5.1563364E-2,-2.0512145E-2,7.512795E-2,-8.139125E-2,-1.0402512E-2,2.796304E-2,-7.257802E-2,8.038501E-3,6.1111737E-2,4.8003282E-2,-8.540577E-2,-8.641658E-2,-2.2866718E-2,7.7947E-2,-3.7466068E-2,-4.563294E-2,4.0027473E-2,2.8349971E-2,-6.656232E-2,-9.543469E-2,-2.2046087E-2,7.3569536E-2,-3.2183785E-2,2.592336E-2,-8.256249E-2,4.5661386E-2,-8.1043206E-2,1.832877E-2,5.9590537E-2,-5.286146E-2,3.615398E-2,2.5504146E-2,-8.848948E-2,4.187368E-2,-1.8860823E-2,3.9644413E-2,-4.7720764E-2,4.064712E-2,-7.157436E-2,1.9003164E-2,8.426619E-2,-7.960328E-2,4.1238498E-2,-7.869995E-2,5.413821E-2],"categories":[],"categories_nodes":[],"categories_segments":[],"categories_sizes":[],"default_left":[0,0,0,0,0,0,0,0,0,0,0,0,0,0,0,0,0,0,0,0,0,0,0,0,0,0,0,0,0,0,0,0,0,0,0,0,0,0,0,0,0,0,0,0,0,0,0,0,0,0,0,0,0,0,0,0,0,0,0,0,0,0,0,0,0,0,0,0,0,0,0,0,0,0,0,0,0,0,0,0,0,0,0,0,0,0,0,0,0,0,0,0,0,0,0,0,0,0,0,0,0,0,0,0,0,0,0,0,0,0,0,0,0],"id":2,"left_children":[1,3,5,7,9,11,13,15,17,19,21,23,25,27,29,31,33,35,37,39,41,43,45,47,49,51,53,55,-1,57,59,61,63,65,67,69,71,73,75,-1,77,-1,-1,79,81,83,85,87,89,91,93,95,97,99,101,103,105,107,-1,109,111,-1,-1,-1,-1,-1,-1,-1,-1,-1,-1,-1,-1,-1,-1,-1,-1,-1,-1,-1,-1,-1,-1,-1,-1,-1,-1,-1,-1,-1,-1,-1,-1,-1,-1,-1,-1,-1,-1,-1,-1,-1,-1,-1,-1,-1,-1,-1,-1,-1,-1,-1,-1],"loss_changes":[8.038897E2,3.435587E2,2.451351E2,1.5802246E2,7.404382E1,1.4432355E2,9.820387E1,1.4447223E2,1.3100732E2,3.888413E1,5.71109E1,5.157949E1,1.2029053E2,4.0397762E1,3.4997185E1,4.4845062E1,1.3476933E2,7.619113E1,7.299875E1,5.6936813E1,2.3471447E1,2.9039734E1,5.276149E1,2.7557087E1,5.564286E1,6.924054E1,7.589111E1,3.7616127E1,0E0,2.554565E1,3.6910385E1,2.9524588E1,2.8931885E1,7.322103E1,5.3400475E1,1.684297E1,4.6008904E1,4.360112E1,4.920581E1,0E0,4.2874474E1,0E0,0E0,2.1592773E1,1.2430407E1,4.8425774E1,3.5982086E1,4.5447617E0,9.645537E0,2.8775103E1,3.0085318E1,5.3535828E1,4.048683E1,4.720414E1,6.9984764E1,2.8916805E1,3.962008E1,3.120844E0,0E0,2.688944E1,2.938861E1,0E0,0E0,0E0,0E0,0E0,0E0,0E0,0E0,0E0,0E0,0E0,0E0,0E0,0E0,0E0,0E0,0E0,0E0,0E0,0E0,0E0,0E0,0E0,0E0,0E0,0E0,0E0,0E0,0E0,0E0,0E0,0E0,0E0,0E0,0E0,0E0,0E0,0E0,0E0,0E0,0E0,0E0,0E0,0E0,0E0,0E0,0E0,0E0,0E0,0E0,0E0,0E0],"parents":[2147483647,0,0,1,1,2,2,3,3,4,4,5,5,6,6,7,7,8,8,9,9,10,10,11,11,12,12,13,13,14,14,15,15,16,16,17,17,18,18,19,19,20,20,21,21,22,22,23,23,24,24,25,25,26,26,27,27,29,29,30,30,31,31,32,32,33,33,34,34,35,35,36,36,37,37,38,38,40,40,43,43,44,44,45,45,46,46,47,47,48,48,49,49,50,50,51,51,52,52,53,53,54,54,55,55,56,56,57,57,59,59,60,60],"right_children":[2,4,6,8,10,12,14,16,18,20,22,24,26,28,30,32,34,36,38,40,42,44,46,48,50,52,54,56,-1,58,60,62,64,66,68,70,72,74,76,-1,78,-1,-1,80,82,84,86,88,90,92,94,96,98,100,102,104,106,108,-1,110,112,-1,-1,-1,-1,-1,-1,-1,-1,-1,-1,-1,-1,-1,-1,-1,-1,-1,-1,-1,-1,-1,-1,-1,-1,-1,-1,-1,-1,-1,-1,-1,-1,-1,-1,-1,-1,-1,-1,-1,-1,-1,-1,-1,-1,-1,-1,-1,-1,-1,-1,-1,-1],"split_conditions":[3.620517E-2,4.5256574E-2,6.209405E-2,-2.5744963E-2,-6.0001645E-2,-2.1674573E-2,-1.7036822E-2,-1.294717E-2,-1.3096623E-2,5.1919222E-2,-1.7942928E-3,-2.666781E-2,4.007729E-2,2.630196E-2,-7.074884E-2,-9.272623E-2,1.3890765E-3,-6.910062E-2,-2.7696837E-3,-7.783361E-2,-6.08506E-3,7.3798485E-2,-2.7501008E-2,6.072466E-2,-8.915934E-3,7.25001E-2,8.56931E-34,2.6161857E-2,-8.665169E-2,-4.472377E-3,-6.6030286E-2,2.1328568E-2,-5.972562E-2,-1.1006313E-2,-9.6428774E-2,9.366739E-3,-1.6680526E-2,-4.8849294E-3,-2.3267872E-3,7.5703405E-2,-4.9307704E-2,-3.9782032E-2,8.6199306E-2,6.690489E-2,-1.51375225E-2,-1.89918E-3,-8.964212E-2,6.708068E-2,7.6468224E-3,-3.2160528E-2,4.7141835E-2,-4.403162E-2,1.9224012E-2,-2.960813E-2,2.6537556E-2,4.2435873E-2,-3.8408883E-2,-1.9052242E-8,-7.430043E-2,-4.385195E-2,9.985467E-2,-7.617184E-2,7.3631935E-2,-2.8188492E-3,-8.700087E-2,3.5576575E-2,-2.5429254E-2,4.7253203E-2,-5.1563364E-2,-2.0512145E-2,7.512795E-2,-8.139125E-2,-1.0402512E-2,2.796304E-2,-7.257802E-2,8.038501E-3,6.1111737E-2,4.8003282E-2,-8.540577E-2,-8.641658E-2,-2.2866718E-2,7.7947E-2,-3.7466068E-2,-4.563294E-2,4.0027473E-2,2.8349971E-2,-6.656232E-2,-9.543469E-2,-2.2046087E-2,7.3569536E-2,-3.2183785E-2,2.592336E-2,-8.256249E-2,4.5661386E-2,-8.1043206E-2,1.832877E-2,5.9590537E-2,-5.286146E-2,3.615398E-2,2.5504146E-2,-8.848948E-2,4.187368E-2,-1.8860823E-2,3.9644413E-2,-4.7720764E-2,4.064712E-2,-7.157436E-2,1.9003164E-2,8.426619E-2,-7.960328E-2,4.1238498E-2,-7.869995E-2,5.413821E-2],"split_indices":[68,6,6,256,350,21,350,265,278,265,68,51,78,141,151,29,232,335,21,67,33,105,377,155,3,120,127,261,0,204,371,103,273,351,166,219,29,228,126,0,323,0,0,84,16,367,291,97,23,174,8,160,84,334,169,283,31,319,0,125,279,0,0,0,0,0,0,0,0,0,0,0,0,0,0,0,0,0,0,0,0,0,0,0,0,0,0,0,0,0,0,0,0,0,0,0,0,0,0,0,0,0,0,0,0,0,0,0,0,0,0,0,0],"split_type":[0,0,0,0,0,0,0,0,0,0,0,0,0,0,0,0,0,0,0,0,0,0,0,0,0,0,0,0,0,0,0,0,0,0,0,0,0,0,0,0,0,0,0,0,0,0,0,0,0,0,0,0,0,0,0,0,0,0,0,0,0,0,0,0,0,0,0,0,0,0,0,0,0,0,0,0,0,0,0,0,0,0,0,0,0,0,0,0,0,0,0,0,0,0,0,0,0,0,0,0,0,0,0,0,0,0,0,0,0,0,0,0,0],"sum_hessian":[2.9274546E3,1.454524E3,1.4729307E3,9.084552E2,5.460688E2,1.202473E3,2.7045767E2,5.249717E2,3.8348352E2,6.2298256E1,4.8377057E2,1.1664533E2,1.0858276E3,1.488174E2,1.2164027E2,1.3219376E2,3.9277792E2,1.14450516E2,2.69033E2,4.4612858E1,1.7685398E1,2.600625E2,2.2370805E2,3.4555904E1,8.208943E1,8.23263E2,2.625647E2,1.398412E2,8.976191E0,1.35455065E1,1.08094765E2,1.221633E1,1.19977425E2,2.2307321E2,1.6970473E2,2.3191895E1,9.125862E1,4.139715E1,2.2763585E2,9.057371E0,3.555549E1,4.310944E0,1.3374454E1,2.5254054E2,7.521963E0,6.4544174E1,1.5916388E2,2.7777912E1,6.7779927E0,2.7867805E1,5.4221626E1,7.7401483E2,4.9248158E1,3.9337353E1,2.2322734E2,1.0818583E2,3.1655375E1,9.813357E0,3.732149E0,1.934656E1,8.87482E1,4.228587E0,7.9877424E0,1.1329332E1,1.08648094E2,1.5127321E2,7.180001E1,1.4207483E1,1.5549724E2,5.6346607E0,1.7557234E1,4.7561043E1,4.369758E1,2.0076946E1,2.13202E1,5.9299873E1,1.6833598E2,6.8569393E0,2.869855E1,2.3747154E2,1.50689945E1,3.2080088E0,4.3139544E0,3.5225266E1,2.9318909E1,1.0160631E1,1.4900325E2,2.4711424E1,3.066488E0,3.215576E0,3.562417E0,8.101002E0,1.9766804E1,4.9974266E1,4.2473617E0,9.006025E1,6.839546E2,2.3315987E1,2.5932173E1,1.3056083E1,2.6281267E1,1.5594281E2,6.728453E1,9.8561066E1,9.62476E0,1.1806167E1,1.9849209E1,3.3829317E0,6.4304256E0,5.719242E0,1.3627316E1,8.50453E1,3.7028992E0],"tree_param":{"num_deleted":"0","num_feature":"384","num_nodes":"113","size_leaf_vector":"1"}},{"base_weights":[-1.5997263E-2,-5.409849E-1,4.326697E-1,-3.3950686E-2,-9.702029E-1,6.320676E-1,-3.2537487E-1,-1.1366132E0,1.5294762E-1,-1.3252002E0,-5.07426E-1,8.2967854E-1,3.2698046E-2,-8.817595E-1,1.5396386E-1,7.81824E-1,-1.3156015E0,-3.8303727E-1,5.1583666E-1,-7.969658E-1,-1.5181625E0,4.1616313E-2,-1.0159411E0,1.0792195E0,4.1863862E-1,1.1585652E0,-1.9951443E-1,-1.1940931E0,5.537029E-1,-4.7478667E-1,6.6501784E-1,7.7773675E-2,-2.0996634E-2,-1.4831434E0,4.3330064E-1,-8.2379824E-1,5.85104E-1,-1.0308007E0,6.484811E-1,-1.2253155E0,4.2596614E-1,5.641804E-1,-1.5677104E0,-5.8970094E-1,8.409108E-1,-1.1435257E0,9.940738E-1,1.1628728E0,-2.2237873E-1,5.5810636E-1,-1.117879E0,-3.8127843E-2,1.3421242E0,1.09694526E-1,-9.016507E-1,-1.3533558E0,1.1262285E0,-7.532293E-2,1.0068411E0,-8.3085006E-1,9.046826E-1,-1.0491236E0,8.987877E-1,-8.61192E-2,-2.1241048E-2,-3.442092E-2,8.056726E-2,2.7392654E-2,-5.6193896E-2,-8.151013E-2,4.1711383E-2,2.9708872E-2,-8.924284E-2,8.861816E-3,4.9228124E-2,1.3088742E-2,-8.3434865E-2,-4.782819E-2,5.9942026E-2,8.0455735E-2,-2.6383543E-2,-8.141375E-2,-6.498158E-3,1.2215242E-2,-7.428869E-2,7.211625E-2,-1.3446505E-2,-6.1398752E-2,7.5760216E-2,-1.9593442E-2,8.101394E-2,1.1751771E-2,6.328546E-2,-9.143182E-2,2.6217237E-2,2.4654E-3,4.486392E-2,-9.532051E-2,-1.3762094E-3,-1.3758162E-2,7.6312385E-2,2.0853555E-2,-4.4447254E-2,1.46114025E-2,-7.0619844E-2,-7.678766E-2,2.675115E-2,1.829657E-2,7.706257E-2,7.005353E-2,-3.5919722E-2,-7.2544314E-2,2.1480875E-2,7.5534955E-2,-3.5904206E-2,-8.325099E-2,2.8693676E-2,-2.3288665E-2,5.887413E-2],"categories":[],"categories_nodes":[],"categories_segments":[],"categories_sizes":[],"default_left":[0,0,0,0,0,0,0,0,0,0,0,0,0,0,0,0,0,0,0,0,0,0,0,0,0,0,0,0,0,0,0,0,0,0,0,0,0,0,0,0,0,0,0,0,0,0,0,0,0,0,0,0,0,0,0,0,0,0,0,0,0,0,0,0,0,0,0,0,0,0,0,0,0,0,0,0,0,0,0,0,0,0,0,0,0,0,0,0,0,0,0,0,0,0,0,0,0,0,0,0,0,0,0,0,0,0,0,0,0,0,0,0,0,0,0,0,0,0,0],"id":3,"left_children":[1,3,5,7,9,11,13,15,17,19,21,23,25,27,29,31,33,35,37,39,41,43,45,47,49,51,53,55,57,59,61,-1,-1,63,65,67,69,71,73,75,77,79,81,83,85,87,89,91,93,95,97,-1,99,101,103,105,107,-1,109,111,113,115,117,-1,-1,-1,-1,-1,-1,-1,-1,-1,-1,-1,-1,-1,-1,-1,-1,-1,-1,-1,-1,-1,-1,-1,-1,-1,-1,-1,-1,-1,-1,-1,-1,-1,-1,-1,-1,-1,-1,-1,-1,-1,-1,-1,-1,-1,-1,-1,-1,-1,-1,-1,-1,-1,-1,-1,-1],"loss_changes":[6.9170184E2,2.9446054E2,2.3954312E2,1.282353E2,1.1971478E2,1.4849826E2,8.825881E1,3.1994034E1,1.03715965E2,4.0995728E1,8.930941E1,9.627557E1,8.1792175E1,6.9289444E1,5.76252E1,8.391277E0,2.4920715E1,9.241393E1,6.586205E1,5.965979E1,3.2061584E1,7.855822E1,4.371463E1,6.408081E1,7.731369E1,1.9885788E1,5.6433556E1,4.8098755E1,2.7690536E1,4.0316914E1,4.0534203E1,0E0,0E0,1.8470184E1,1.1703845E1,6.1721077E1,3.8878593E1,3.2290703E1,4.6276314E1,5.573352E1,3.323109E1,9.700626E0,2.551239E1,6.539511E1,4.6229668E1,3.7018417E1,9.699648E0,5.2268555E1,4.4421913E1,5.6689484E1,2.5838345E1,0E0,1.5066711E1,5.5941677E1,4.8853775E1,4.160031E1,2.1625614E0,0E0,1.7045269E1,5.106904E1,1.7807713E1,1.3269203E1,3.381788E1,0E0,0E0,0E0,0E0,0E0,0E0,0E0,0E0,0E0,0E0,0E0,0E0,0E0,0E0,0E0,0E0,0E0,0E0,0E0,0E0,0E0,0E0,0E0,0E0,0E0,0E0,0E0,0E0,0E0,0E0,0E0,0E0,0E0,0E0,0E0,0E0,0E0,0E0,0E0,0E0,0E0,0E0,0E0,0E0,0E0,0E0,0E0,0E0,0E0,0E0,0E0,0E0,0E0,0E0,0E0,0E0],"parents":[2147483647,0,0,1,1,2,2,3,3,4,4,5,5,6,6,7,7,8,8,9,9,10,10,11,11,12,12,13,13,14,14,15,15,16,16,17,17,18,18,19,19,20,20,21,21,22,22,23,23,24,24,25,25,26,26,27,27,28,28,29,29,30,30,33,33,34,34,35,35,36,36,37,37,38,38,39,39,40,40,41,41,42,42,43,43,44,44,45,45,46,46,47,47,48,48,49,49,50,50,52,52,53,53,54,54,55,55,56,56,58,58,59,59,60,60,61,61,62,62],"right_children":[2,4,6,8,10,12,14,16,18,20,22,24,26,28,30,32,34,36,38,40,42,44,46,48,50,52,54,56,58,60,62,-1,-1,64,66,68,70,72,74,76,78,80,82,84,86,88,90,92,94,96,98,-1,100,102,104,106,108,-1,110,112,114,116,118,-1,-1,-1,-1,-1,-1,-1,-1,-1,-1,-1,-1,-1,-1,-1,-1,-1,-1,-1,-1,-1,-1,-1,-1,-1,-1,-1,-1,-1,-1,-1,-1,-1,-1,-1,-1,-1,-1,-1,-1,-1,-1,-1,-1,-1,-1,-1,-1,-1,-1,-1,-1,-1,-1,-1,-1],"split_conditions":[3.002892E-2,2.1475306E-2,5.880058E-2,-1.36125265E-2,2.5501098E-2,8.883143E-3,2.612281E-2,-1.11587614E-1,-1.2381775E-2,-4.3713123E-2,-2.7006138E-2,1.2586954E-2,-7.171834E-2,6.0424544E-2,-6.871566E-3,-6.0022315E-3,7.603095E-2,6.029438E-2,-6.0062874E-2,3.205548E-2,-1.1125644E-1,-6.327446E-3,7.260721E-2,5.5547684E-2,2.998389E-2,-3.8880017E-2,4.0466007E-2,8.4406786E-2,3.1749764E-4,3.415382E-2,-1.647616E-2,7.7773675E-2,-2.0996634E-2,3.1999372E-2,4.1041862E-2,-6.4749844E-2,-1.2654942E-2,-2.2557607E-2,3.4044245E-3,-8.133279E-2,-1.4376193E-2,-1.285244E-2,7.757929E-2,-1.1006313E-2,-9.906034E-3,1.1029547E-1,4.958865E-2,2.4901606E-34,1.8516397E-2,-3.587578E-2,4.1185033E-2,-3.8127843E-2,-4.107192E-2,5.9590105E-2,-1.48832E-2,6.475835E-2,2.466418E-3,-7.532293E-2,1.5861953E-2,3.513252E-2,1.32904565E-2,4.1813925E-2,-5.761307E-2,-8.61192E-2,-2.1241048E-2,-3.442092E-2,8.056726E-2,2.7392654E-2,-5.6193896E-2,-8.151013E-2,4.1711383E-2,2.9708872E-2,-8.924284E-2,8.861816E-3,4.9228124E-2,1.3088742E-2,-8.3434865E-2,-4.782819E-2,5.9942026E-2,8.0455735E-2,-2.6383543E-2,-8.141375E-2,-6.498158E-3,1.2215242E-2,-7.428869E-2,7.211625E-2,-1.3446505E-2,-6.1398752E-2,7.5760216E-2,-1.9593442E-2,8.101394E-2,1.1751771E-2,6.328546E-2,-9.143182E-2,2.6217237E-2,2.4654E-3,4.486392E-2,-9.532051E-2,-1.3762094E-3,-1.3758162E-2,7.6312385E-2,2.0853555E-2,-4.4447254E-2,1.46114025E-2,-7.0619844E-2,-7.678766E-2,2.675115E-2,1.829657E-2,7.706257E-2,7.005353E-2,-3.5919722E-2,-7.2544314E-2,2.1480875E-2,7.5534955E-2,-3.5904206E-2,-8.325099E-2,2.8693676E-2,-2.3288665E-2,5.887413E-2],"split_indices":[68,6,6,27,200,133,210,253,82,366,305,232,164,89,239,2,113,295,274,183,289,296,38,169,118,3,78,213,27,95,36,0,0,125,289,232,48,149,94,55,100,177,269,351,377,192,251,127,200,256,284,0,318,374,145,96,93,0,348,11,232,348,125,0,0,0,0,0,0,0,0,0,0,0,0,0,0,0,0,0,0,0,0,0,0,0,0,0,0,0,0,0,0,0,0,0,0,0,0,0,0,0,0,0,0,0,0,0,0,0,0,0,0,0,0,0,0,0,0],"split_type":[0,0,0,0,0,0,0,0,0,0,0,0,0,0,0,0,0,0,0,0,0,0,0,0,0,0,0,0,0,0,0,0,0,0,0,0,0,0,0,0,0,0,0,0,0,0,0,0,0,0,0,0,0,0,0,0,0,0,0,0,0,0,0,0,0,0,0,0,0,0,0,0,0,0,0,0,0,0,0,0,0,0,0,0,0,0,0,0,0,0,0,0,0,0,0,0,0,0,0,0,0,0,0,0,0,0,0,0,0,0,0,0,0,0,0,0,0,0,0],"sum_hessian":[2.9346128E3,1.3521956E3,1.5824172E3,6.2039886E2,7.317967E2,1.2529929E3,3.294242E2,8.917902E1,5.3121985E2,4.130678E2,3.1872885E2,9.42025E2,3.1096796E2,1.5207088E2,1.7735333E2,7.322862E0,8.185616E1,2.1443909E2,3.1678073E2,1.1189243E2,3.0117538E2,1.5369884E2,1.6503001E2,5.8515424E2,3.5687076E2,5.2489037E1,2.584789E2,1.250337E2,2.7037178E1,7.9551704E1,9.780163E1,4.275871E0,3.046991E0,7.483869E1,7.01747E0,1.4745642E2,6.698267E1,2.4487274E1,2.9229346E2,8.286561E1,2.902683E1,6.758301E0,2.9441708E2,8.60193E1,6.767953E1,1.555854E2,9.444612E0,5.499178E2,3.523644E1,3.2775742E2,2.9113356E1,4.302716E0,4.818632E1,1.8003731E2,7.844161E1,1.1739281E2,7.6408944E0,4.4556003E0,2.2581577E1,6.3546917E1,1.6004787E1,1.13186455E1,8.648298E1,6.0528397E1,1.4310294E1,3.8075738E0,3.209896E0,2.6320557E1,1.2113586E2,6.2107224E0,6.0771954E1,7.828662E0,1.6658611E1,1.2231453E2,1.6997894E2,1.9126259E1,6.3739346E1,1.0323077E1,1.8703754E1,3.2112703E0,3.5470307E0,2.82389E2,1.2028069E1,4.4929363E1,4.108994E1,4.3699528E1,2.3980005E1,1.5131725E2,4.268153E0,3.0557392E0,6.3888726E0,5.5196423E1,4.947214E2,1.0722552E1,2.4513885E1,1.3155486E2,1.9620256E2,1.646073E1,1.2652626E1,4.87462E0,4.33117E1,1.3811005E2,4.192726E1,2.3631166E1,5.481045E1,1.07222946E2,1.0169861E1,3.3625736E0,4.2783213E0,1.8534254E1,4.047323E0,4.2493084E1,2.1053831E1,1.1703293E1,4.3014936E0,8.186234E0,3.1324115E0,1.4553598E1,7.192938E1],"tree_param":{"num_deleted":"0","num_feature":"384","num_nodes":"119","size_leaf_vector":"1"}},{"base_weights":[3.1139043E-3,3.625992E-1,-6.176117E-1,5.769994E-1,-2.2442816E-1,5.563654E-1,-8.2361466E-1,1.3147005E-1,8.182557E-1,1.8378374E-1,-8.404769E-1,3.330877E-2,1.2607148E0,-3.5972294E-1,-1.0829564E0,4.6207908E-1,-3.7413058E-1,9.38279E-1,-8.602945E-2,-1.310667E-1,1.0319135E0,-3.4635067E-1,-1.4115189E0,5.148985E-1,-9.123463E-1,-6.1100423E-1,1.4778963E0,9.189049E-2,-9.3327504E-1,-4.5415118E-1,-1.2515584E0,-1.068054E0,5.80963E-1,-7.7005935E-1,2.7331272E-1,-3.629419E-2,1.0208255E0,4.4080228E-1,-1.3151579E0,-3.8532037E-1,1.1562529E0,1.2587366E0,-8.3769655E-1,5.0512016E-1,-1.0488821E0,3.8088676E-2,-1.5673943E0,-1.29135E0,8.5446507E-1,-1.5820496E0,4.7198007E-1,2.4604267E-2,-7.198679E-2,-2.2285078E-3,1.5947648E0,5.914715E-1,-6.5988797E-1,-1.1182406E0,7.8982824E-1,-7.7189803E-1,8.3244E-1,-1.3531892E0,-5.239486E-1,-8.9267306E-2,2.7386526E-2,4.097256E-2,-1.2408461E-2,1.6060686E-2,-5.9220325E-2,3.082939E-2,-7.1006596E-2,5.601445E-2,-3.643137E-2,5.806538E-2,2.3984432E-2,-8.593796E-2,3.642839E-2,-9.162447E-2,8.463069E-3,4.5511585E-2,-3.0635068E-2,-7.4608706E-2,7.414322E-2,-4.3757282E-2,7.072247E-2,2.798652E-2,-8.150654E-2,6.260858E-2,-3.176002E-2,-7.538884E-2,1.9847687E-2,-8.492812E-2,2.8400877E-2,-8.178317E-2,-1.7797627E-2,5.5194456E-2,-7.617495E-2,-1.5979737E-2,-8.856388E-2,-6.928749E-2,7.009344E-2,8.493795E-2,2.017268E-2,-1.890512E-2,5.0730623E-2,-4.829203E-2,4.6100006E-2,-1.5772825E-2,-7.354202E-2,-6.887622E-2,7.599514E-2,-9.660545E-3,-7.0054166E-2,6.706023E-2,-2.6351253E-2,-7.074823E-2,-7.0818225E-3,-4.9473256E-2,5.7572115E-2],"categories":[],"categories_nodes":[],"categories_segments":[],"categories_sizes":[],"default_left":[0,0,0,0,0,0,0,0,0,0,0,0,0,0,0,0,0,0,0,0,0,0,0,0,0,0,0,0,0,0,0,0,0,0,0,0,0,0,0,0,0,0,0,0,0,0,0,0,0,0,0,0,0,0,0,0,0,0,0,0,0,0,0,0,0,0,0,0,0,0,0,0,0,0,0,0,0,0,0,0,0,0,0,0,0,0,0,0,0,0,0,0,0,0,0,0,0,0,0,0,0,0,0,0,0,0,0,0,0,0,0,0,0,0,0,0,0,0,0],"id":4,"left_children":[1,3,5,7,9,11,13,15,17,19,21,23,25,27,29,31,33,35,37,39,41,43,45,47,49,51,53,55,57,59,61,63,65,67,69,71,73,75,77,79,81,83,85,87,89,-1,91,93,95,97,99,-1,-1,-1,101,103,105,107,109,111,113,115,117,-1,-1,-1,-1,-1,-1,-1,-1,-1,-1,-1,-1,-1,-1,-1,-1,-1,-1,-1,-1,-1,-1,-1,-1,-1,-1,-1,-1,-1,-1,-1,-1,-1,-1,-1,-1,-1,-1,-1,-1,-1,-1,-1,-1,-1,-1,-1,-1,-1,-1,-1,-1,-1,-1,-1,-1],"loss_changes":[6.50055E2,2.3231323E2,2.5884174E2,1.451662E2,1.2444639E2,5.893617E1,1.0900604E2,7.9733925E1,9.52207E1,7.973479E1,5.5142334E1,4.2774902E1,2.8623795E1,8.49324E1,6.121295E1,5.305263E1,4.859091E1,6.2299683E1,6.76843E1,7.1888016E1,3.5324936E1,6.454887E1,3.20672E1,3.924574E1,3.0140297E1,7.836692E0,1.0995117E1,6.956092E1,4.690248E1,5.165548E1,3.3230103E1,2.5469883E1,5.3217354E1,5.345443E1,4.293811E1,4.9982334E1,5.3687195E1,4.6796215E1,2.4379177E1,5.4473694E1,3.356941E1,2.5317368E1,1.1259666E1,4.25863E1,3.9720848E1,0E0,2.4874817E1,2.7155037E0,3.308671E1,4.593441E0,2.1130693E1,0E0,0E0,0E0,6.3820496E0,4.5994087E1,3.67053E1,3.656244E1,2.516886E1,3.6353783E1,1.8133034E1,2.9892944E1,4.6282455E1,0E0,0E0,0E0,0E0,0E0,0E0,0E0,0E0,0E0,0E0,0E0,0E0,0E0,0E0,0E0,0E0,0E0,0E0,0E0,0E0,0E0,0E0,0E0,0E0,0E0,0E0,0E0,0E0,0E0,0E0,0E0,0E0,0E0,0E0,0E0,0E0,0E0,0E0,0E0,0E0,0E0,0E0,0E0,0E0,0E0,0E0,0E0,0E0,0E0,0E0,0E0,0E0,0E0,0E0,0E0,0E0],"parents":[2147483647,0,0,1,1,2,2,3,3,4,4,5,5,6,6,7,7,8,8,9,9,10,10,11,11,12,12,13,13,14,14,15,15,16,16,17,17,18,18,19,19,20,20,21,21,22,22,23,23,24,24,25,25,26,26,27,27,28,28,29,29,30,30,31,31,32,32,33,33,34,34,35,35,36,36,37,37,38,38,39,39,40,40,41,41,42,42,43,43,44,44,46,46,47,47,48,48,49,49,50,50,54,54,55,55,56,56,57,57,58,58,59,59,60,60,61,61,62,62],"right_children":[2,4,6,8,10,12,14,16,18,20,22,24,26,28,30,32,34,36,38,40,42,44,46,48,50,52,54,56,58,60,62,64,66,68,70,72,74,76,78,80,82,84,86,88,90,-1,92,94,96,98,100,-1,-1,-1,102,104,106,108,110,112,114,116,118,-1,-1,-1,-1,-1,-1,-1,-1,-1,-1,-1,-1,-1,-1,-1,-1,-1,-1,-1,-1,-1,-1,-1,-1,-1,-1,-1,-1,-1,-1,-1,-1,-1,-1,-1,-1,-1,-1,-1,-1,-1,-1,-1,-1,-1,-1,-1,-1,-1,-1,-1,-1,-1,-1,-1,-1],"split_conditions":[3.8256858E-2,1.0689793E-2,-6.445174E-2,1.982442E-33,1.832705E-2,5.154958E-4,-1.47356205E-2,3.535009E-2,1.6315097E-2,4.208446E-2,1.5632685E-2,8.407357E-3,-1.2256439E-2,3.5771944E-2,-4.1997824E-2,-7.354741E-2,1.6723065E-2,-2.1674573E-2,-1.7204618E-2,6.613295E-2,1.6924948E-2,-2.8391473E-2,-9.560166E-2,-6.345233E-2,-2.7514408E-5,-6.453713E-2,-3.888305E-2,9.572058E-3,7.126964E-2,8.411468E-2,4.0796045E-2,4.4963505E-2,2.9339917E-2,-1.6937932E-2,3.6298513E-2,-2.5311094E-2,2.9802877E-2,-4.9379896E-2,7.809412E-2,-5.99591E-2,-2.8750276E-2,-4.250531E-2,-3.393689E-2,-3.7652873E-2,4.0769387E-2,3.8088676E-2,1.1724233E-1,4.0200002E-2,3.2213338E-2,-5.5067793E-2,1.3966711E-2,2.4604267E-2,-7.198679E-2,-2.2285078E-3,-1.4787762E-3,-1.1150193E-2,7.637758E-2,-6.589931E-2,-4.23703E-3,7.267456E-2,3.8763043E-2,8.702433E-2,5.2544724E-2,-8.9267306E-2,2.7386526E-2,4.097256E-2,-1.2408461E-2,1.6060686E-2,-5.9220325E-2,3.082939E-2,-7.1006596E-2,5.601445E-2,-3.643137E-2,5.806538E-2,2.3984432E-2,-8.593796E-2,3.642839E-2,-9.162447E-2,8.463069E-3,4.5511585E-2,-3.0635068E-2,-7.4608706E-2,7.414322E-2,-4.3757282E-2,7.072247E-2,2.798652E-2,-8.150654E-2,6.260858E-2,-3.176002E-2,-7.538884E-2,1.9847687E-2,-8.492812E-2,2.8400877E-2,-8.178317E-2,-1.7797627E-2,5.5194456E-2,-7.617495E-2,-1.5979737E-2,-8.856388E-2,-6.928749E-2,7.009344E-2,8.493795E-2,2.017268E-2,-1.890512E-2,5.0730623E-2,-4.829203E-2,4.6100006E-2,-1.5772825E-2,-7.354202E-2,-6.887622E-2,7.599514E-2,-9.660545E-3,-7.0054166E-2,6.706023E-2,-2.6351253E-2,-7.074823E-2,-7.0818225E-3,-4.9473256E-2,5.7572115E-2],"split_indices":[6,133,350,127,154,256,377,380,193,278,245,245,363,374,291,77,230,21,146,364,118,322,229,215,105,269,25,120,219,356,378,19,214,23,228,245,361,87,4,6,137,309,1,281,147,0,76,5,300,201,52,0,0,0,258,192,27,281,364,6,128,364,357,0,0,0,0,0,0,0,0,0,0,0,0,0,0,0,0,0,0,0,0,0,0,0,0,0,0,0,0,0,0,0,0,0,0,0,0,0,0,0,0,0,0,0,0,0,0,0,0,0,0,0,0,0,0,0,0],"split_type":[0,0,0,0,0,0,0,0,0,0,0,0,0,0,0,0,0,0,0,0,0,0,0,0,0,0,0,0,0,0,0,0,0,0,0,0,0,0,0,0,0,0,0,0,0,0,0,0,0,0,0,0,0,0,0,0,0,0,0,0,0,0,0,0,0,0,0,0,0,0,0,0,0,0,0,0,0,0,0,0,0,0,0,0,0,0,0,0,0,0,0,0,0,0,0,0,0,0,0,0,0,0,0,0,0,0,0,0,0,0,0,0,0,0,0,0,0,0,0],"sum_hessian":[2.91119E3,1.8437953E3,1.0673945E3,1.3505503E3,4.932449E2,1.590864E2,9.0830817E2,4.7496844E2,8.755819E2,2.9708765E2,1.9615727E2,9.1893036E1,6.719336E1,3.2656308E2,5.817451E2,2.87234E2,1.877344E2,7.729525E2,1.026294E2,2.1727449E2,7.981315E1,1.06022156E2,9.013512E1,6.118773E1,3.0705303E1,6.7975183E0,6.0395836E1,1.8317294E2,1.4339012E2,1.2378385E2,4.5796127E2,2.0132196E1,2.6710184E2,1.1637725E2,7.135716E1,6.040072E1,7.125518E2,7.228697E1,3.0342432E1,1.8202425E2,3.5250248E1,7.146917E1,8.343978E0,4.80574E1,5.7964756E1,5.771996E0,8.436312E1,9.239159E0,5.194857E1,2.0597773E1,1.010753E1,3.0903296E0,3.7071886E0,4.34973E0,5.604611E1,1.10172806E2,7.3000145E1,1.2980708E2,1.35830345E1,9.9588684E1,2.4195173E1,4.0107965E2,5.688161E1,1.3869981E1,6.262216E0,2.074449E2,5.965693E1,3.2088913E1,8.428834E1,5.9859123E1,1.1498036E1,2.2385796E1,3.801492E1,5.6478455E2,1.4776724E2,7.9150434E0,6.4371925E1,2.2326866E1,8.015566E0,2.6728683E1,1.5529556E2,3.4781332E0,3.1772116E1,4.546317E0,6.692285E1,3.1256585E0,5.218319E0,2.8976265E1,1.9081135E1,4.396715E1,1.3997605E1,7.967372E1,4.689396E0,6.206105E0,3.0330534E0,4.7501892E1,4.446678E0,3.0354416E0,1.756233E1,3.2081206E0,6.8994093E0,5.1154663E1,4.8914447E0,3.3505535E1,7.666727E1,6.149571E1,1.1504434E1,4.0192715E1,8.961437E1,3.1991062E0,1.0383928E1,5.2556984E1,4.70317E1,1.761601E1,6.5791626E0,3.8146155E2,1.961811E1,4.4833725E1,1.2047883E1],"tree_param":{"num_deleted":"0","num_feature":"384","num_nodes":"119","size_leaf_vector":"1"}},{"base_weights":[1.1564553E-2,2.4628727E-1,-7.859904E-1,-4.74173E-1,4.5123598E-1,-1.1216347E-1,-1.1363356E0,-6.1650377E-2,-9.274422E-1,-4.0943682E-1,5.9743005E-1,-8.971908E-1,3.1294584E-1,-1.3502567E0,-3.5909504E-1,-4.346497E-1,7.551199E-1,5.60545E-2,-1.1384885E0,1.8480994E-1,-1.04522E0,7.3328733E-1,-1.5396976E-1,-1.2218921E0,1.1155015E0,5.855816E-1,-1.1835656E0,-1.4076625E0,-4.3208938E-2,-1.5265356E0,4.1825578E-2,-8.066321E-1,5.612082E-1,1.0034823E0,-9.542912E-1,7.7781075E-1,-1.4102781E0,-1.2976068E0,3.5338083E-1,4.205269E-1,-1.5215992E0,-1.4237487E0,2.8695545E-1,-4.9354654E-2,8.4826505E-1,-9.397639E-1,1.488597E-1,-1.4603486E0,5.066997E-1,-2.1018961E-2,8.772775E-2,-5.861647E-1,8.4259427E-1,-8.432749E-2,2.901787E-2,-4.4674087E-1,-1.488838E0,1.2870328E0,-7.549443E-2,-1.4984596E-2,-8.419644E-2,-8.204326E-1,6.625709E-1,-7.786864E-3,-6.160273E-2,5.014357E-2,-6.289936E-2,-3.0039161E-2,5.9208214E-2,-8.172645E-2,2.9198665E-2,7.375455E-2,-2.808216E-2,-1.6171016E-2,-8.3281316E-2,-7.502016E-2,-3.218454E-3,-4.3390155E-2,7.300037E-2,-4.618696E-2,3.2532316E-2,-1.6152844E-2,-8.831671E-2,-7.8230284E-2,2.6845112E-2,5.6564968E-2,-6.559989E-2,3.3532184E-2,-3.455751E-2,1.8500878E-2,5.1644515E-2,-6.1986E-2,6.444612E-2,-7.3010184E-2,1.8206079E-2,3.343759E-2,-7.925653E-2,7.5090595E-2,-3.1836074E-2,-8.3465844E-2,4.0845703E-2,-4.39516E-2,5.1193006E-2,7.1426064E-2,-6.1119445E-2,-7.628039E-2,1.8962031E-2,2.5339872E-2,8.4390864E-2,-6.825688E-2,4.763135E-2,-7.3677935E-2,4.8963938E-2],"categories":[],"categories_nodes":[],"categories_segments":[],"categories_sizes":[],"default_left":[0,0,0,0,0,0,0,0,0,0,0,0,0,0,0,0,0,0,0,0,0,0,0,0,0,0,0,0,0,0,0,0,0,0,0,0,0,0,0,0,0,0,0,0,0,0,0,0,0,0,0,0,0,0,0,0,0,0,0,0,0,0,0,0,0,0,0,0,0,0,0,0,0,0,0,0,0,0,0,0,0,0,0,0,0,0,0,0,0,0,0,0,0,0,0,0,0,0,0,0,0,0,0,0,0,0,0,0,0,0,0,0,0],"id":5,"left_children":[1,3,5,7,9,11,13,15,17,19,21,23,25,27,29,31,33,35,37,39,41,43,45,47,49,51,53,55,57,59,61,63,65,67,69,71,73,75,77,79,81,83,85,87,89,91,93,95,97,-1,-1,99,101,-1,-1,103,105,107,-1,-1,-1,109,111,-1,-1,-1,-1,-1,-1,-1,-1,-1,-1,-1,-1,-1,-1,-1,-1,-1,-1,-1,-1,-1,-1,-1,-1,-1,-1,-1,-1,-1,-1,-1,-1,-1,-1,-1,-1,-1,-1,-1,-1,-1,-1,-1,-1,-1,-1,-1,-1,-1,-1],"loss_changes":[5.4843994E2,3.344286E2,1.5713272E2,9.37655E1,2.2203397E2,7.669817E1,7.236853E1,8.06849E1,4.9672714E1,9.7112885E1,1.5396729E2,5.410161E1,6.1602184E1,2.5692993E1,4.4964718E1,6.776437E1,3.6219532E1,4.6795338E1,4.718196E1,5.43156E1,6.2979675E1,1.1491376E2,5.525222E1,2.9579384E1,1.2253739E1,3.8725132E1,2.1683838E1,2.4979553E1,3.2130657E1,4.2358017E0,3.928547E1,3.655401E1,4.1438858E1,2.1873497E1,1.2516115E1,2.8456375E1,3.5127983E0,4.44382E1,2.7964655E1,3.711345E1,4.2436905E0,2.7572067E1,3.967532E1,7.64592E1,9.7899475E1,4.475873E1,5.8735306E1,1.7463196E1,1.1451639E1,0E0,0E0,3.696536E1,3.3518776E1,0E0,0E0,4.1074455E1,2.137262E1,1.8506069E0,0E0,0E0,0E0,3.0992731E1,3.0288876E1,0E0,0E0,0E0,0E0,0E0,0E0,0E0,0E0,0E0,0E0,0E0,0E0,0E0,0E0,0E0,0E0,0E0,0E0,0E0,0E0,0E0,0E0,0E0,0E0,0E0,0E0,0E0,0E0,0E0,0E0,0E0,0E0,0E0,0E0,0E0,0E0,0E0,0E0,0E0,0E0,0E0,0E0,0E0,0E0,0E0,0E0,0E0,0E0,0E0,0E0],"parents":[2147483647,0,0,1,1,2,2,3,3,4,4,5,5,6,6,7,7,8,8,9,9,10,10,11,11,12,12,13,13,14,14,15,15,16,16,17,17,18,18,19,19,20,20,21,21,22,22,23,23,24,24,25,25,26,26,27,27,28,28,29,29,30,30,31,31,32,32,33,33,34,34,35,35,36,36,37,37,38,38,39,39,40,40,41,41,42,42,43,43,44,44,45,45,46,46,47,47,48,48,51,51,52,52,55,55,56,56,57,57,61,61,62,62],"right_children":[2,4,6,8,10,12,14,16,18,20,22,24,26,28,30,32,34,36,38,40,42,44,46,48,50,52,54,56,58,60,62,64,66,68,70,72,74,76,78,80,82,84,86,88,90,92,94,96,98,-1,-1,100,102,-1,-1,104,106,108,-1,-1,-1,110,112,-1,-1,-1,-1,-1,-1,-1,-1,-1,-1,-1,-1,-1,-1,-1,-1,-1,-1,-1,-1,-1,-1,-1,-1,-1,-1,-1,-1,-1,-1,-1,-1,-1,-1,-1,-1,-1,-1,-1,-1,-1,-1,-1,-1,-1,-1,-1,-1,-1,-1],"split_conditions":[6.209405E-2,-4.424246E-3,-2.0145519E-2,-2.2133853E-2,-2.8458642E-2,1.8691193E-2,5.8709014E-2,1.7659744E-2,-5.4157533E-2,6.9415383E-3,4.2811316E-2,7.6140106E-2,6.1974533E-2,5.4093696E-2,-4.3690857E-2,5.683393E-2,1.996596E-2,-2.4822176E-2,7.529492E-2,6.052021E-2,7.0562094E-2,2.4901606E-34,1.666198E-3,6.2162764E-2,2.6703376E-2,-2.9394604E-2,5.119868E-2,-4.695973E-2,-1.9089498E-2,-4.740141E-2,3.1405196E-2,-6.4961454E-3,3.214888E-2,-5.328336E-2,3.1574633E-2,-2.7136631E-2,-4.9519483E-2,7.1547754E-2,2.4133204E-2,-6.964008E-2,-3.8837474E-2,6.244837E-2,2.075474E-2,-1.8302787E-2,-2.3009762E-2,8.912061E-2,-5.589745E-2,-6.768878E-2,7.907334E-3,-2.1018961E-2,8.772775E-2,3.1168777E-2,-1.8191218E-2,-8.432749E-2,2.901787E-2,-1.3044778E-2,1.14930786E-1,2.6479905E-2,-7.549443E-2,-1.4984596E-2,-8.419644E-2,1.1609561E-1,-4.4302136E-2,-7.786864E-3,-6.160273E-2,5.014357E-2,-6.289936E-2,-3.0039161E-2,5.9208214E-2,-8.172645E-2,2.9198665E-2,7.375455E-2,-2.808216E-2,-1.6171016E-2,-8.3281316E-2,-7.502016E-2,-3.218454E-3,-4.3390155E-2,7.300037E-2,-4.618696E-2,3.2532316E-2,-1.6152844E-2,-8.831671E-2,-7.8230284E-2,2.6845112E-2,5.6564968E-2,-6.559989E-2,3.3532184E-2,-3.455751E-2,1.8500878E-2,5.1644515E-2,-6.1986E-2,6.444612E-2,-7.3010184E-2,1.8206079E-2,3.343759E-2,-7.925653E-2,7.5090595E-2,-3.1836074E-2,-8.3465844E-2,4.0845703E-2,-4.39516E-2,5.1193006E-2,7.1426064E-2,-6.1119445E-2,-7.628039E-2,1.8962031E-2,2.5339872E-2,8.4390864E-2,-6.825688E-2,4.763135E-2,-7.3677935E-2,4.8963938E-2],"split_indices":[6,68,377,55,3,68,68,378,335,6,169,205,380,51,266,200,252,311,66,120,200,127,210,91,303,44,84,333,228,12,277,101,329,192,25,216,147,126,275,338,324,0,329,245,87,72,365,358,153,0,0,26,1,0,0,377,321,103,0,0,0,238,323,0,0,0,0,0,0,0,0,0,0,0,0,0,0,0,0,0,0,0,0,0,0,0,0,0,0,0,0,0,0,0,0,0,0,0,0,0,0,0,0,0,0,0,0,0,0,0,0,0,0],"split_type":[0,0,0,0,0,0,0,0,0,0,0,0,0,0,0,0,0,0,0,0,0,0,0,0,0,0,0,0,0,0,0,0,0,0,0,0,0,0,0,0,0,0,0,0,0,0,0,0,0,0,0,0,0,0,0,0,0,0,0,0,0,0,0,0,0,0,0,0,0,0,0,0,0,0,0,0,0,0,0,0,0,0,0,0,0,0,0,0,0,0,0,0,0,0,0,0,0,0,0,0,0,0,0,0,0,0,0,0,0,0,0,0,0],"sum_hessian":[2.9275996E3,2.2624463E3,6.6515326E2,5.007691E2,1.7616772E3,2.279849E2,4.3716837E2,2.627631E2,2.3800603E2,2.5552888E2,1.5061483E3,7.9698784E1,1.4828612E2,3.4223682E2,9.493157E1,1.8070659E2,8.20565E1,4.2179543E1,1.9582648E2,1.3244551E2,1.2308338E2,1.2755466E3,2.3060176E2,6.8965675E1,1.0733109E1,1.25949265E2,2.2336845E1,3.2776434E2,1.4472467E1,2.3549683E1,7.138189E1,1.31702E2,4.900458E1,7.200742E1,1.0049078E1,2.8580997E1,1.3598546E1,1.7707085E2,1.8755634E1,1.1703262E2,1.5412886E1,9.5795105E1,2.7288279E1,1.6346017E2,1.1120864E3,6.3562904E1,1.6703886E2,6.0741646E1,8.224034E0,3.2542155E0,7.478894E0,2.2426039E1,1.0352323E2,1.741485E1,4.921995E0,2.6038212E1,3.0172614E2,7.653458E0,6.81901E0,3.007897E0,2.0541786E1,2.9743883E1,4.1638004E1,5.259616E1,7.910584E1,3.9792507E1,9.212074E0,7.053623E0,6.4953804E1,6.924436E0,3.1246424E0,1.8729637E1,9.851359E0,3.0182648E0,1.0580281E1,1.5187892E2,2.5191927E1,9.018907E0,9.736727E0,1.666546E1,1.0036716E2,3.0069513E0,1.2405934E1,8.9562744E1,6.232363E0,1.8049517E1,9.238761E0,7.701545E1,8.6444725E1,3.1057834E2,8.015081E2,5.6413963E1,7.148941E0,1.9027395E1,1.4801147E2,3.1215003E0,5.7620144E1,4.2296014E0,3.9944324E0,1.2548819E1,9.87722E0,9.494736E0,9.4028496E1,7.3724165E0,1.8665794E1,2.960816E2,5.6445217E0,3.3657088E0,4.2877493E0,2.2929682E1,6.8142023E0,4.9046183E0,3.6733383E1],"tree_param":{"num_deleted":"0","num_feature":"384","num_nodes":"113","size_leaf_vector":"1"}},{"base_weights":[-1.2035905E-3,-3.961434E-1,4.898049E-1,4.4145137E-2,-8.054884E-1,7.0572895E-1,-2.4881987E-1,-9.7363794E-1,2.1599504E-1,-1.0479354E0,-4.1153932E-1,-8.573307E-1,7.7125174E-1,3.861248E-1,-8.600509E-1,-1.2795732E0,3.27781E-1,-2.1156368E-1,6.317794E-1,-1.148316E0,-6.79977E-2,-9.0897804E-1,2.6677113E-2,-8.846298E-2,-6.700367E-2,-5.0088894E-1,8.427438E-1,6.971586E-1,-8.486909E-1,3.861693E-1,-1.2144128E0,-1.4595927E0,1.9195135E-1,1.1777071E0,-7.6296166E-2,-1.1164162E0,8.198584E-2,1.4229451E-1,9.8444307E-1,-1.5614918E0,-9.9521327E-1,-1.2032549E0,4.8934272E-1,-1.225797E0,-1.2728846E-1,2.5539663E-1,-1.3695585E0,-1.086554E0,1.0724715E0,4.606243E-1,-1.1499604E0,9.2910296E-1,-1.2479527E-1,-8.575058E-1,9.4847375E-1,6.4165294E-1,-1.5758592E0,-7.4967645E-2,7.205629E-1,-1.3567257E0,6.458554E-2,1.7596727E-2,-7.9691194E-2,-7.084762E-2,6.140353E-2,-2.2960318E-2,8.626958E-2,-7.556739E-2,-1.2576567E-2,5.1297624E-2,-1.05480105E-2,-2.8348252E-2,3.4585144E-2,5.5000503E-2,-3.0007634E-2,1.1845966E-2,-8.104945E-2,-2.2688245E-2,-5.9316535E-2,-8.227893E-2,2.5830492E-2,5.0564338E-2,-4.1929137E-2,-9.595665E-3,-7.167702E-2,-7.2010964E-2,3.0307481E-2,2.4476653E-2,-6.304605E-2,-8.309705E-2,1.7483255E-2,2.4537241E-2,-8.2970984E-2,4.1014645E-3,7.895995E-2,6.2018733E-2,-4.030258E-2,-8.984492E-2,2.1957614E-2,1.2083576E-2,5.1239368E-2,-4.5304157E-2,2.607557E-2,-8.5938476E-2,2.91073E-2,-4.088772E-3,6.403264E-2,7.914156E-2,-3.3351157E-2,-8.7878816E-2,-2.0545393E-2,5.6451406E-2,-4.81907E-2,-3.3961754E-2,-8.75288E-2],"categories":[],"categories_nodes":[],"categories_segments":[],"categories_sizes":[],"default_left":[0,0,0,0,0,0,0,0,0,0,0,0,0,0,0,0,0,0,0,0,0,0,0,0,0,0,0,0,0,0,0,0,0,0,0,0,0,0,0,0,0,0,0,0,0,0,0,0,0,0,0,0,0,0,0,0,0,0,0,0,0,0,0,0,0,0,0,0,0,0,0,0,0,0,0,0,0,0,0,0,0,0,0,0,0,0,0,0,0,0,0,0,0,0,0,0,0,0,0,0,0,0,0,0,0,0,0,0,0,0,0,0,0,0,0],"id":6,"left_children":[1,3,5,7,9,11,13,15,17,19,21,23,25,27,29,31,33,35,37,39,41,43,45,-1,47,49,51,53,55,57,59,61,63,65,-1,67,69,71,73,75,77,79,81,83,85,87,89,91,93,95,97,99,101,103,105,107,109,-1,111,113,-1,-1,-1,-1,-1,-1,-1,-1,-1,-1,-1,-1,-1,-1,-1,-1,-1,-1,-1,-1,-1,-1,-1,-1,-1,-1,-1,-1,-1,-1,-1,-1,-1,-1,-1,-1,-1,-1,-1,-1,-1,-1,-1,-1,-1,-1,-1,-1,-1,-1,-1,-1,-1,-1,-1],"loss_changes":[5.588678E2,2.879054E2,2.0507327E2,1.3497197E2,7.862915E1,1.025014E2,1.1340529E2,4.480613E1,1.17463066E2,5.0262085E1,6.912483E1,2.9056572E1,8.726813E1,5.574182E1,6.616247E1,2.4245209E1,3.6482033E1,8.672081E1,5.7664185E1,2.7807129E1,3.1348396E1,3.661918E1,5.4479465E1,0E0,2.756663E1,3.2630093E1,7.568915E1,4.5843227E1,3.281104E1,2.232411E1,4.3147507E1,2.0189682E1,1.9651827E1,1.4830505E1,0E0,2.6930763E1,6.8570595E1,5.5490425E1,3.6271286E1,1.3623413E1,3.479123E1,1.324781E1,2.3940536E1,2.2395493E1,4.3187916E1,5.2623566E1,1.2652889E1,1.2100619E1,5.5090446E0,2.2178543E1,3.265147E1,5.4377563E1,3.8341667E1,2.1537653E1,3.4220665E1,1.3782682E1,3.5137749E0,0E0,2.1242184E1,2.8246567E1,0E0,0E0,0E0,0E0,0E0,0E0,0E0,0E0,0E0,0E0,0E0,0E0,0E0,0E0,0E0,0E0,0E0,0E0,0E0,0E0,0E0,0E0,0E0,0E0,0E0,0E0,0E0,0E0,0E0,0E0,0E0,0E0,0E0,0E0,0E0,0E0,0E0,0E0,0E0,0E0,0E0,0E0,0E0,0E0,0E0,0E0,0E0,0E0,0E0,0E0,0E0,0E0,0E0,0E0,0E0],"parents":[2147483647,0,0,1,1,2,2,3,3,4,4,5,5,6,6,7,7,8,8,9,9,10,10,11,11,12,12,13,13,14,14,15,15,16,16,17,17,18,18,19,19,20,20,21,21,22,22,24,24,25,25,26,26,27,27,28,28,29,29,30,30,31,31,32,32,33,33,35,35,36,36,37,37,38,38,39,39,40,40,41,41,42,42,43,43,44,44,45,45,46,46,47,47,48,48,49,49,50,50,51,51,52,52,53,53,54,54,55,55,56,56,58,58,59,59],"right_children":[2,4,6,8,10,12,14,16,18,20,22,24,26,28,30,32,34,36,38,40,42,44,46,-1,48,50,52,54,56,58,60,62,64,66,-1,68,70,72,74,76,78,80,82,84,86,88,90,92,94,96,98,100,102,104,106,108,110,-1,112,114,-1,-1,-1,-1,-1,-1,-1,-1,-1,-1,-1,-1,-1,-1,-1,-1,-1,-1,-1,-1,-1,-1,-1,-1,-1,-1,-1,-1,-1,-1,-1,-1,-1,-1,-1,-1,-1,-1,-1,-1,-1,-1,-1,-1,-1,-1,-1,-1,-1,-1,-1,-1,-1,-1,-1],"split_conditions":[4.31245E-2,5.6655046E-2,7.835776E-2,-1.8079445E-2,2.236116E-2,-3.71175E-2,-4.8715286E-2,5.629784E-2,-2.5744963E-2,8.652258E-2,6.6397334E-3,3.302236E-2,-7.985828E-2,3.245926E-2,-4.4349305E-2,8.534113E-2,-1.1726853E-2,-1.294717E-2,-9.124941E-3,-8.953747E-3,-6.3427724E-3,3.728774E-2,4.7443908E-2,-8.846298E-2,-1.1300057E-3,-3.8646124E-2,5.381409E-2,-2.0837676E-2,-1.4483587E-2,-2.708992E-2,1.0490507E-1,-1.2013841E-1,1.9642184E-2,3.8291965E-2,-7.6296166E-2,4.2516343E-2,-5.735944E-2,2.4281343E-2,4.451713E-2,-9.684841E-2,-6.1469365E-2,4.9388703E-2,3.879803E-2,-4.560304E-2,-1.3685313E-2,3.2606907E-2,4.7806546E-2,-3.831558E-2,2.1599354E-33,-1.8488416E-2,1.9517642E-2,-2.7579192E-2,8.598504E-3,6.0015883E-2,-1.1721426E-2,-2.831029E-2,3.945904E-2,-7.4967645E-2,1.942937E-2,-4.583391E-2,6.458554E-2,1.7596727E-2,-7.9691194E-2,-7.084762E-2,6.140353E-2,-2.2960318E-2,8.626958E-2,-7.556739E-2,-1.2576567E-2,5.1297624E-2,-1.05480105E-2,-2.8348252E-2,3.4585144E-2,5.5000503E-2,-3.0007634E-2,1.1845966E-2,-8.104945E-2,-2.2688245E-2,-5.9316535E-2,-8.227893E-2,2.5830492E-2,5.0564338E-2,-4.1929137E-2,-9.595665E-3,-7.167702E-2,-7.2010964E-2,3.0307481E-2,2.4476653E-2,-6.304605E-2,-8.309705E-2,1.7483255E-2,2.4537241E-2,-8.2970984E-2,4.1014645E-3,7.895995E-2,6.2018733E-2,-4.030258E-2,-8.984492E-2,2.1957614E-2,1.2083576E-2,5.1239368E-2,-4.5304157E-2,2.607557E-2,-8.5938476E-2,2.91073E-2,-4.088772E-3,6.403264E-2,7.914156E-2,-3.3351157E-2,-8.7878816E-2,-2.0545393E-2,5.6451406E-2,-4.81907E-2,-3.3961754E-2,-8.75288E-2],"split_indices":[68,99,99,21,265,21,281,179,256,200,124,210,125,101,273,27,327,265,87,27,327,38,131,0,125,113,169,278,220,357,24,146,183,172,0,176,232,194,291,283,141,243,31,245,195,16,183,200,127,332,62,301,207,124,192,134,303,0,316,118,0,0,0,0,0,0,0,0,0,0,0,0,0,0,0,0,0,0,0,0,0,0,0,0,0,0,0,0,0,0,0,0,0,0,0,0,0,0,0,0,0,0,0,0,0,0,0,0,0,0,0,0,0,0,0],"split_type":[0,0,0,0,0,0,0,0,0,0,0,0,0,0,0,0,0,0,0,0,0,0,0,0,0,0,0,0,0,0,0,0,0,0,0,0,0,0,0,0,0,0,0,0,0,0,0,0,0,0,0,0,0,0,0,0,0,0,0,0,0,0,0,0,0,0,0,0,0,0,0,0,0,0,0,0,0,0,0,0,0,0,0,0,0,0,0,0,0,0,0,0,0,0,0,0,0,0,0,0,0,0,0,0,0,0,0,0,0,0,0,0,0,0,0],"sum_hessian":[2.8799675E3,1.5962368E3,1.2837306E3,7.694809E2,8.26756E2,9.933783E2,2.903523E2,1.1048234E2,6.5899854E2,5.1076016E2,3.159958E2,3.9480408E1,9.538979E2,1.4259421E2,1.4775809E2,8.94673E1,2.1015034E1,3.251411E2,3.3385745E2,4.631457E2,4.76145E1,1.4749428E2,1.685015E2,1.7754969E1,2.172544E1,5.043546E1,9.0346246E2,1.1425124E2,2.834297E1,3.2693123E1,1.15064964E2,7.9722534E1,9.744773E0,1.4658681E1,6.3563533E0,7.895693E1,2.4618417E2,1.4039607E2,1.9346136E2,1.2273197E2,3.404137E2,1.5296943E1,3.2317554E1,1.0455143E2,4.2942856E1,1.4548625E2,2.3015247E1,1.1490609E1,1.0234829E1,2.0442678E1,2.9992783E1,8.2946686E2,7.399559E1,1.5563231E1,9.868801E1,9.332812E0,1.9010157E1,4.3999014E0,2.829322E1,1.0931598E2,5.7489905E0,5.3878922E0,7.433464E1,3.6732812E0,6.0714917E0,3.7154706E0,1.0943211E1,5.3692104E1,2.5264828E1,5.7712784E1,1.8847139E2,6.126892E1,7.912715E1,1.8059604E2,1.286533E1,3.834839E0,1.1889713E2,8.969004E1,2.5072366E2,1.220197E1,3.0949728E0,2.3370266E1,8.9472885E0,1.7814955E1,8.673647E1,1.5045744E1,2.789711E1,1.2661295E2,1.8873299E1,1.9698507E1,3.3167388E0,3.0996213E0,8.390988E0,3.857295E0,6.377534E0,1.266625E1,7.7764273E0,2.1222294E1,8.770489E0,1.01778534E2,7.276883E2,3.331763E1,4.067796E1,9.616397E0,5.946835E0,2.424531E1,7.44427E1,5.306776E0,4.0260363E0,1.6004894E1,3.0052638E0,2.3036518E1,5.2567024E0,4.118877E1,6.8127205E1],"tree_param":{"num_deleted":"0","num_feature":"384","num_nodes":"115","size_leaf_vector":"1"}},{"base_weights":[1.0891641E-2,-4.2985812E-1,4.4027156E-1,4.415322E-3,-8.082616E-1,6.46982E-1,-2.9520768E-1,-3.320647E-1,4.617988E-1,-1.1245973E0,-4.0431708E-1,3.5491902E-2,8.1943077E-1,4.1787452E-1,-8.100439E-1,2.3558417E-1,-7.8767824E-1,-6.377587E-1,6.20287E-1,-1.1815193E0,6.550223E-1,3.4912425E-1,-7.212386E-1,-4.8796922E-1,5.744407E-1,1.1047958E0,5.5972844E-1,-1.4499931E-1,1.1942425E0,3.439792E-1,-1.1679336E0,-3.128396E-1,9.2163974E-1,-1.0520264E0,3.623571E-1,-1.3721362E0,8.092561E-1,-7.443324E-1,7.5188655E-1,-5.450293E-1,-1.3618406E0,-6.426694E-2,1.3994331E0,8.800848E-1,-4.9404004E-1,-8.189424E-1,1.0215894E0,-1.4135931E-1,-1.4709315E0,-9.816631E-1,8.0890536E-1,-4.6740505E-1,1.1668677E0,-1.4904329E-1,7.857239E-1,-8.815068E-2,2.5335574E-1,1.4067549E0,-7.385146E-2,-6.104116E-1,1.0931482E0,-1.3761147E0,1.2769766E-1,-8.5809596E-2,5.417284E-4,-7.772389E-2,5.4897364E-2,-1.0668333E-2,-6.6049315E-2,3.8324382E-2,-7.7441625E-2,-8.4480725E-2,2.871706E-2,-3.4927487E-2,8.237123E-2,-7.449142E-2,3.457143E-2,-3.4823325E-2,4.259335E-2,-4.9741052E-2,1.5892042E-2,-6.9757245E-2,3.6697917E-2,2.40822E-2,8.614155E-2,5.6278963E-2,-7.217202E-2,-6.4401254E-2,3.147221E-2,-4.763492E-2,2.792268E-2,-2.283389E-2,7.822183E-2,-8.3699435E-2,5.6973062E-3,-8.4825896E-2,2.6999054E-2,-8.505644E-2,6.1184745E-2,4.872022E-2,-4.8675697E-2,-8.816021E-2,4.14973E-2,6.172605E-3,6.2337346E-2,-5.658224E-2,2.3864869E-2,5.2690366E-3,5.0064724E-2,2.4382358E-2,-7.815564E-2,-3.0003747E-2,7.800722E-2,2.5422841E-2,-8.453169E-2,7.1445E-2,-3.408763E-2,-7.557172E-2,2.307648E-3,-4.7128394E-2,6.63197E-2],"categories":[],"categories_nodes":[],"categories_segments":[],"categories_sizes":[],"default_left":[0,0,0,0,0,0,0,0,0,0,0,0,0,0,0,0,0,0,0,0,0,0,0,0,0,0,0,0,0,0,0,0,0,0,0,0,0,0,0,0,0,0,0,0,0,0,0,0,0,0,0,0,0,0,0,0,0,0,0,0,0,0,0,0,0,0,0,0,0,0,0,0,0,0,0,0,0,0,0,0,0,0,0,0,0,0,0,0,0,0,0,0,0,0,0,0,0,0,0,0,0,0,0,0,0,0,0,0,0,0,0,0,0,0,0,0,0,0,0,0,0],"id":7,"left_children":[1,3,5,7,9,11,13,15,17,19,21,23,25,27,29,31,33,35,37,39,41,43,45,47,49,51,53,55,57,59,61,63,65,67,69,71,73,75,77,79,81,-1,83,85,87,89,91,93,95,97,99,101,103,105,107,-1,109,111,-1,113,115,117,119,-1,-1,-1,-1,-1,-1,-1,-1,-1,-1,-1,-1,-1,-1,-1,-1,-1,-1,-1,-1,-1,-1,-1,-1,-1,-1,-1,-1,-1,-1,-1,-1,-1,-1,-1,-1,-1,-1,-1,-1,-1,-1,-1,-1,-1,-1,-1,-1,-1,-1,-1,-1,-1,-1,-1,-1,-1,-1],"loss_changes":[5.435425E2,2.32909E2,2.213664E2,1.0187002E2,9.6324005E1,1.19756805E2,1.177661E2,9.8819534E1,4.9286587E1,4.3743713E1,8.00497E1,7.10714E1,6.504413E1,5.9067127E1,7.725997E1,6.44683E1,6.4768845E1,3.919274E1,4.4686028E1,4.647461E1,2.1718222E1,4.5034595E1,4.0948837E1,4.3345333E1,4.6069782E1,4.164264E1,7.474327E1,5.1377686E1,3.4294136E1,3.271558E1,3.8549286E1,4.3417725E1,3.4899864E1,3.8620697E1,3.233546E1,1.5890068E1,1.719308E1,2.4700308E1,3.311708E1,3.6211807E1,2.3353027E1,0E0,2.2705803E0,3.669829E1,3.5719963E1,4.1729706E1,1.1106313E1,3.7603477E1,1.5985291E1,2.8580952E1,3.292315E1,2.9552685E1,3.363617E1,7.037916E1,5.172693E1,0E0,2.8119587E1,1.7275986E1,0E0,2.5459108E1,1.6152111E1,2.3676727E1,2.769144E1,0E0,0E0,0E0,0E0,0E0,0E0,0E0,0E0,0E0,0E0,0E0,0E0,0E0,0E0,0E0,0E0,0E0,0E0,0E0,0E0,0E0,0E0,0E0,0E0,0E0,0E0,0E0,0E0,0E0,0E0,0E0,0E0,0E0,0E0,0E0,0E0,0E0,0E0,0E0,0E0,0E0,0E0,0E0,0E0,0E0,0E0,0E0,0E0,0E0,0E0,0E0,0E0,0E0,0E0,0E0,0E0,0E0,0E0],"parents":[2147483647,0,0,1,1,2,2,3,3,4,4,5,5,6,6,7,7,8,8,9,9,10,10,11,11,12,12,13,13,14,14,15,15,16,16,17,17,18,18,19,19,20,20,21,21,22,22,23,23,24,24,25,25,26,26,27,27,28,28,29,29,30,30,31,31,32,32,33,33,34,34,35,35,36,36,37,37,38,38,39,39,40,40,42,42,43,43,44,44,45,45,46,46,47,47,48,48,49,49,50,50,51,51,52,52,53,53,54,54,56,56,57,57,59,59,60,60,61,61,62,62],"right_children":[2,4,6,8,10,12,14,16,18,20,22,24,26,28,30,32,34,36,38,40,42,44,46,48,50,52,54,56,58,60,62,64,66,68,70,72,74,76,78,80,82,-1,84,86,88,90,92,94,96,98,100,102,104,106,108,-1,110,112,-1,114,116,118,120,-1,-1,-1,-1,-1,-1,-1,-1,-1,-1,-1,-1,-1,-1,-1,-1,-1,-1,-1,-1,-1,-1,-1,-1,-1,-1,-1,-1,-1,-1,-1,-1,-1,-1,-1,-1,-1,-1,-1,-1,-1,-1,-1,-1,-1,-1,-1,-1,-1,-1,-1,-1,-1,-1,-1,-1,-1,-1],"split_conditions":[3.620517E-2,2.1475306E-2,7.937428E-2,-2.278953E-2,2.5501098E-2,-3.8292676E-2,-5.7212546E-2,-4.0568784E-2,-1.3414443E-2,1.1568828E-1,-1.1714383E-3,-2.4692358E-2,-2.0796897E-2,-4.253295E-3,-4.4349305E-2,4.9778737E-2,4.6781078E-2,2.4402482E-2,-8.3765335E-2,-4.365411E-2,2.6434971E-2,-2.7006138E-2,8.0575824E-2,1.777195E-2,-8.546358E-2,-4.9274288E-2,1.0963141E-2,-5.5700723E-2,-2.3654012E-4,3.2167014E-2,6.493447E-2,-6.652379E-2,-3.3386156E-2,-8.459135E-2,3.666737E-2,7.871388E-2,2.8471634E-2,2.4349196E-2,-2.8166708E-2,4.5398954E-2,8.131944E-2,-6.426694E-2,-1.732555E-2,3.6555424E-2,1.1972735E-2,9.113135E-2,-1.0418458E-5,-1.4447538E-2,9.020257E-2,8.9138806E-2,2.5526041E-2,-4.210297E-3,-2.7561424E-2,-5.1053724E-4,7.6440847E-3,-8.815068E-2,3.262451E-2,-5.4783866E-2,-7.385146E-2,-3.1961903E-2,1.1269115E-2,4.2878136E-2,3.111669E-2,-8.5809596E-2,5.417284E-4,-7.772389E-2,5.4897364E-2,-1.0668333E-2,-6.6049315E-2,3.8324382E-2,-7.7441625E-2,-8.4480725E-2,2.871706E-2,-3.4927487E-2,8.237123E-2,-7.449142E-2,3.457143E-2,-3.4823325E-2,4.259335E-2,-4.9741052E-2,1.5892042E-2,-6.9757245E-2,3.6697917E-2,2.40822E-2,8.614155E-2,5.6278963E-2,-7.217202E-2,-6.4401254E-2,3.147221E-2,-4.763492E-2,2.792268E-2,-2.283389E-2,7.822183E-2,-8.3699435E-2,5.6973062E-3,-8.4825896E-2,2.6999054E-2,-8.505644E-2,6.1184745E-2,4.872022E-2,-4.8675697E-2,-8.816021E-2,4.14973E-2,6.172605E-3,6.2337346E-2,-5.658224E-2,2.3864869E-2,5.2690366E-3,5.0064724E-2,2.4382358E-2,-7.815564E-2,-3.0003747E-2,7.800722E-2,2.5422841E-2,-8.453169E-2,7.1445E-2,-3.408763E-2,-7.557172E-2,2.307648E-3,-4.7128394E-2,6.63197E-2],"split_indices":[68,6,99,256,200,125,281,216,21,356,380,256,334,218,273,265,100,151,215,322,194,305,279,19,125,287,277,51,141,271,313,215,175,118,34,39,105,9,27,249,96,0,60,341,125,204,287,21,327,194,86,105,21,82,217,0,291,82,0,340,119,381,80,0,0,0,0,0,0,0,0,0,0,0,0,0,0,0,0,0,0,0,0,0,0,0,0,0,0,0,0,0,0,0,0,0,0,0,0,0,0,0,0,0,0,0,0,0,0,0,0,0,0,0,0,0,0,0,0,0,0],"split_type":[0,0,0,0,0,0,0,0,0,0,0,0,0,0,0,0,0,0,0,0,0,0,0,0,0,0,0,0,0,0,0,0,0,0,0,0,0,0,0,0,0,0,0,0,0,0,0,0,0,0,0,0,0,0,0,0,0,0,0,0,0,0,0,0,0,0,0,0,0,0,0,0,0,0,0,0,0,0,0,0,0,0,0,0,0,0,0,0,0,0,0,0,0,0,0,0,0,0,0,0,0,0,0,0,0,0,0,0,0,0,0,0,0,0,0,0,0,0,0,0,0],"sum_hessian":[2.8701006E3,1.4162982E3,1.4538025E3,6.599254E2,7.563728E2,1.1349413E3,3.1886118E2,3.8037308E2,2.7955234E2,4.2318527E2,3.3318753E2,2.4992657E2,8.850147E2,1.3376967E2,1.850915E2,1.6957837E2,2.1079471E2,3.4836956E1,2.4471538E2,4.1039468E2,1.2790586E1,9.862273E1,2.3456482E2,1.2683298E2,1.230936E2,4.2012292E2,4.648918E2,7.8018654E1,5.5751007E1,4.3822803E1,1.4126869E2,9.454463E1,7.503373E1,1.714665E2,3.9328213E1,2.314323E1,1.1693726E1,2.111436E1,2.2360103E2,9.14878E1,3.189069E2,3.3449852E0,9.445601E0,6.048813E1,3.8134598E1,2.22615E2,1.1949802E1,9.461416E1,3.221882E1,1.5701099E1,1.073925E2,1.5708832E1,4.044141E2,1.12477615E2,3.5241418E2,1.4736619E1,6.328204E1,5.2081085E1,3.669923E0,1.9353266E1,2.4469538E1,1.2165856E2,1.9610136E1,1.6912964E1,7.763167E1,4.467925E0,7.05658E1,4.207215E1,1.2939435E2,3.2958023E1,6.3701897E0,2.0011274E1,3.131956E0,4.2374425E0,7.4562826E0,1.3873243E1,7.241118E0,1.4053324E1,2.095477E2,6.0038418E1,3.1449387E1,3.1424753E2,4.65936E0,3.1097083E0,6.3358927E0,5.5174213E1,5.3139143E0,2.2258024E1,1.5876572E1,2.0319183E2,1.9423183E1,3.2522087E0,8.697594E0,1.2716809E1,8.189735E1,2.9109615E1,3.1092043E0,1.2011246E1,3.689854E0,9.868303E1,8.709471E0,7.6794696E0,8.029363E0,2.8939478E1,3.754746E2,4.3472046E1,6.900557E1,8.515451E1,2.6725967E2,5.6700275E1,6.5817637E0,3.4913177E0,4.8589767E1,9.766579E0,9.586687E0,2.0740982E1,3.7285564E0,1.1103189E2,1.0626669E1,1.047295E1,9.137185E0],"tree_param":{"num_deleted":"0","num_feature":"384","num_nodes":"121","size_leaf_vector":"1"}},{"base_weights":[-1.1050381E-2,2.9874948E-1,-5.408597E-1,-1.4491643E-1,5.4407066E-1,4.7775784E-1,-7.2687155E-1,2.787084E-1,-5.595934E-1,1.7553663E-1,8.1514466E-1,-1.9478352E-1,8.5258037E-1,-1.4180991E-1,-9.214344E-1,1.2758136E0,7.740985E-2,-2.933681E-2,-1.0538074E0,-3.5262832E-1,4.752713E-1,6.1083084E-1,1.259102E0,2.9311854E-1,-1.2605984E0,9.9034446E-1,-7.415412E-2,-1.3109812E0,7.005472E-2,9.0121746E-2,-1.024208E0,1.4083166E0,-2.9997064E-2,2.5857282E-1,-8.9717275E-1,3.563086E-1,-1.014303E0,-3.5714778E-1,-1.3784505E0,-3.836078E-2,-1.4038085E0,-5.9175247E-1,6.3810915E-1,8.735694E-1,1.2558727E-1,1.3312984E0,-4.0370345E-1,6.195592E-1,-7.464592E-2,-8.2394995E-2,2.8320307E-2,-6.553966E-1,1.1871771E0,-1.5206316E0,3.2156564E-2,-9.4930404E-1,3.150802E-1,7.586877E-1,-9.6787846E-1,-7.7860045E-1,-1.3635591E0,2.1830162E-3,7.594558E-2,2.2648983E-2,-3.4865044E-2,-7.244518E-2,5.3595938E-2,2.723974E-2,-8.619262E-2,5.842432E-2,-6.8687305E-2,-6.846645E-2,1.0007166E-2,-8.017749E-2,-1.446976E-2,4.610986E-2,-1.8194323E-2,-8.8286065E-2,2.0991214E-2,-8.006122E-2,2.2165878E-2,3.997247E-2,-1.963064E-2,5.1646423E-2,-1.3943589E-3,1.4185853E-2,-8.046736E-2,6.928621E-2,-1.4012947E-3,-7.642025E-2,6.195367E-2,4.45725E-2,-7.092909E-2,-7.881408E-2,6.729089E-2,-4.0388234E-2,6.549861E-2,-1.8393472E-2,-8.176336E-2,-7.463972E-2,1.967532E-2,-2.097881E-2,3.4062713E-2,-4.681865E-2,5.639393E-2,7.053021E-2,-7.930283E-2,-1.7143598E-2,-5.2197766E-2,-7.403926E-2,-3.1930443E-2],"categories":[],"categories_nodes":[],"categories_segments":[],"categories_sizes":[],"default_left":[0,0,0,0,0,0,0,0,0,0,0,0,0,0,0,0,0,0,0,0,0,0,0,0,0,0,0,0,0,0,0,0,0,0,0,0,0,0,0,0,0,0,0,0,0,0,0,0,0,0,0,0,0,0,0,0,0,0,0,0,0,0,0,0,0,0,0,0,0,0,0,0,0,0,0,0,0,0,0,0,0,0,0,0,0,0,0,0,0,0,0,0,0,0,0,0,0,0,0,0,0,0,0,0,0,0,0,0,0,0,0],"id":8,"left_children":[1,3,5,7,9,11,13,15,17,19,21,23,25,27,29,31,33,35,37,39,41,43,45,47,49,51,-1,53,55,57,59,61,-1,63,65,67,69,71,73,75,77,79,81,83,85,87,89,91,-1,-1,-1,93,95,97,-1,99,101,103,105,107,109,-1,-1,-1,-1,-1,-1,-1,-1,-1,-1,-1,-1,-1,-1,-1,-1,-1,-1,-1,-1,-1,-1,-1,-1,-1,-1,-1,-1,-1,-1,-1,-1,-1,-1,-1,-1,-1,-1,-1,-1,-1,-1,-1,-1,-1,-1,-1,-1,-1,-1],"loss_changes":[4.7405728E2,1.984456E2,2.022688E2,1.14291595E2,1.1712131E2,4.1800472E1,1.02491516E2,6.454435E1,8.6098526E1,7.912489E1,6.0554382E1,3.1529009E1,3.565381E1,5.611483E1,7.040765E1,1.4274445E1,4.773142E1,6.097696E1,3.7974915E1,5.9787346E1,5.5736572E1,5.9165695E1,2.6003479E1,2.5363174E1,1.4381397E1,3.347052E1,0E0,1.521315E1,4.8359695E1,4.550863E1,5.0118774E1,7.595604E0,0E0,4.2617027E1,4.7610428E1,4.619258E1,3.7037365E1,3.1532314E1,2.7891815E1,4.4261868E1,2.8239014E1,4.532995E1,4.6362427E1,4.3333862E1,4.5581352E1,1.5096985E1,1.962084E1,2.1294428E1,0E0,0E0,0E0,2.3177036E1,2.3227211E1,3.5845413E0,0E0,2.7983105E1,4.221995E1,2.5680721E1,3.8922462E1,4.110045E1,2.0852173E1,0E0,0E0,0E0,0E0,0E0,0E0,0E0,0E0,0E0,0E0,0E0,0E0,0E0,0E0,0E0,0E0,0E0,0E0,0E0,0E0,0E0,0E0,0E0,0E0,0E0,0E0,0E0,0E0,0E0,0E0,0E0,0E0,0E0,0E0,0E0,0E0,0E0,0E0,0E0,0E0,0E0,0E0,0E0,0E0,0E0,0E0,0E0,0E0,0E0,0E0],"parents":[2147483647,0,0,1,1,2,2,3,3,4,4,5,5,6,6,7,7,8,8,9,9,10,10,11,11,12,12,13,13,14,14,15,15,16,16,17,17,18,18,19,19,20,20,21,21,22,22,23,23,24,24,25,25,27,27,28,28,29,29,30,30,31,31,33,33,34,34,35,35,36,36,37,37,38,38,39,39,40,40,41,41,42,42,43,43,44,44,45,45,46,46,47,47,51,51,52,52,53,53,55,55,56,56,57,57,58,58,59,59,60,60],"right_children":[2,4,6,8,10,12,14,16,18,20,22,24,26,28,30,32,34,36,38,40,42,44,46,48,50,52,-1,54,56,58,60,62,-1,64,66,68,70,72,74,76,78,80,82,84,86,88,90,92,-1,-1,-1,94,96,98,-1,100,102,104,106,108,110,-1,-1,-1,-1,-1,-1,-1,-1,-1,-1,-1,-1,-1,-1,-1,-1,-1,-1,-1,-1,-1,-1,-1,-1,-1,-1,-1,-1,-1,-1,-1,-1,-1,-1,-1,-1,-1,-1,-1,-1,-1,-1,-1,-1,-1,-1,-1,-1,-1,-1],"split_conditions":[3.7757408E-2,-1.2381775E-2,-6.445174E-2,-4.0568784E-2,-9.498177E-3,-1.1324404E-2,-5.9403665E-2,-5.1728994E-2,-3.0137915E-2,1.2616705E-2,3.4873188E-2,-1.22465E-3,5.322654E-2,-6.6039816E-2,-4.9477894E-2,5.4495167E-2,5.8449958E-2,2.2719563E-3,-3.2398205E-2,2.7738115E-2,-8.916685E-3,-1.973549E-2,9.704328E-2,5.8089304E-3,5.2324366E-2,-2.7093772E-2,-7.415412E-2,5.1098235E-2,-3.1574596E-2,-2.8982807E-2,1.51875345E-2,-3.962494E-2,-2.9997064E-2,1.9552791E-2,1.0428115E-1,5.8403995E-2,-8.534916E-2,-1.6621687E-2,4.8002273E-2,-4.0187757E-2,4.9682114E-2,3.1380225E-2,3.4947112E-2,-7.9866415E-3,5.0493088E-2,9.714195E-2,3.9402373E-2,1.7386967E-2,-7.464592E-2,-8.2394995E-2,2.8320307E-2,9.0293445E-2,-2.7789906E-2,-8.474435E-2,3.2156564E-2,3.5582248E-2,-2.2920987E-3,-3.0498497E-2,-3.9480153E-2,-3.0042093E-2,5.366074E-2,2.1830162E-3,7.594558E-2,2.2648983E-2,-3.4865044E-2,-7.244518E-2,5.3595938E-2,2.723974E-2,-8.619262E-2,5.842432E-2,-6.8687305E-2,-6.846645E-2,1.0007166E-2,-8.017749E-2,-1.446976E-2,4.610986E-2,-1.8194323E-2,-8.8286065E-2,2.0991214E-2,-8.006122E-2,2.2165878E-2,3.997247E-2,-1.963064E-2,5.1646423E-2,-1.3943589E-3,1.4185853E-2,-8.046736E-2,6.928621E-2,-1.4012947E-3,-7.642025E-2,6.195367E-2,4.45725E-2,-7.092909E-2,-7.881408E-2,6.729089E-2,-4.0388234E-2,6.549861E-2,-1.8393472E-2,-8.176336E-2,-7.463972E-2,1.967532E-2,-2.097881E-2,3.4062713E-2,-4.681865E-2,5.639393E-2,7.053021E-2,-7.930283E-2,-1.7143598E-2,-5.2197766E-2,-7.403926E-2,-3.1930443E-2],"split_indices":[6,82,350,216,87,87,55,273,55,48,160,328,142,266,220,64,120,141,350,131,249,113,99,314,81,50,0,62,111,322,377,2,0,351,70,342,351,160,276,329,125,199,291,146,109,380,331,369,0,0,0,296,12,248,0,155,155,38,349,32,304,0,0,0,0,0,0,0,0,0,0,0,0,0,0,0,0,0,0,0,0,0,0,0,0,0,0,0,0,0,0,0,0,0,0,0,0,0,0,0,0,0,0,0,0,0,0,0,0,0,0],"split_type":[0,0,0,0,0,0,0,0,0,0,0,0,0,0,0,0,0,0,0,0,0,0,0,0,0,0,0,0,0,0,0,0,0,0,0,0,0,0,0,0,0,0,0,0,0,0,0,0,0,0,0,0,0,0,0,0,0,0,0,0,0,0,0,0,0,0,0,0,0,0,0,0,0,0,0,0,0,0,0,0,0,0,0,0,0,0,0,0,0,0,0,0,0,0,0,0,0,0,0,0,0,0,0,0,0,0,0,0,0,0,0],"sum_hessian":[2.8862334E3,1.8215432E3,1.0646902E3,6.487255E2,1.1728177E3,1.6416106E2,9.005292E2,3.2106277E2,3.2766278E2,4.9775327E2,6.7506445E2,5.892059E1,1.0524047E2,2.2516727E2,6.7536194E2,5.3033012E1,2.6802975E2,1.5857858E2,1.690842E2,1.8014384E2,3.176094E2,4.6393335E2,2.1113109E2,4.0915524E1,1.8005068E1,9.992273E1,5.3177404E0,3.3747032E1,1.9142024E2,6.2299297E1,6.130626E2,4.97667E1,3.2663133E0,2.2663565E2,4.1394108E1,1.1441841E2,4.4160175E1,5.441462E1,1.1466957E2,1.394804E2,4.0663456E1,4.1703804E1,2.759056E2,3.0045148E2,1.6348186E2,2.0253664E2,8.594454E0,3.514504E1,5.7704825E0,1.493671E1,3.068358E0,1.0425355E1,8.9497375E1,3.0677567E1,3.0694675E0,3.653838E1,1.5488185E2,3.834894E1,2.3950357E1,3.5756628E2,2.5549632E2,3.8354137E0,4.5931286E1,1.8876956E2,3.7866096E1,3.254056E1,8.853545E0,1.0558895E2,8.829456E0,5.9255114E0,3.823466E1,1.8804247E1,3.561037E1,9.463651E1,2.0033064E1,3.484049E1,1.0463991E2,3.3956337E1,6.707118E0,2.0836063E1,2.086774E1,2.3875703E2,3.7148567E1,2.5519281E2,4.5258682E1,1.5059262E2,1.2889228E1,1.9472081E2,7.8158274E0,5.1430006E0,3.4514537E0,3.1504866E1,3.640175E0,7.2852764E0,3.140078E0,4.8659825E0,8.463139E1,3.1554778E0,2.7522089E1,2.5931248E1,1.0607133E1,5.1470524E1,1.0341133E2,6.583935E0,3.1765007E1,4.6762586E0,1.9274097E1,1.3620374E2,2.2136256E2,2.1903523E2,3.6461086E1],"tree_param":{"num_deleted":"0","num_feature":"384","num_nodes":"111","size_leaf_vector":"1"}},{"base_weights":[2.7520478E-2,-5.138371E-1,3.130968E-1,-1.2645002E-1,-8.823227E-1,5.1139957E-1,-3.2249662E-1,1.7555998E-1,-6.3644546E-1,-2.734744E-1,-1.0779579E0,2.5370088E-1,8.7818474E-1,1.8902613E-1,-8.793783E-1,-1.5243171E-1,6.946593E-1,9.374551E-3,-1.027612E0,9.673977E-1,-6.276368E-1,-1.2094488E0,-9.638033E-3,-2.3788269E-1,5.218571E-1,-7.7455735E-1,9.3652314E-1,7.099477E-1,-2.716356E-1,1.9059302E-1,-1.0855082E0,1.9020824E-1,-1.1301444E0,-1.0280538E0,8.845428E-1,1.1236696E0,-4.8466176E-1,-1.20838E0,6.1567295E-1,-3.6680635E-2,1.3963662E0,-1.3654096E0,-2.2517055E-1,-1.3048977E0,-3.188227E-1,-9.8248935E-1,8.528206E-1,-5.12905E-1,5.5512285E-1,2.2121972E-1,9.662612E-1,4.3220058E-1,-8.2206845E-2,6.3692576E-1,1.1993335E0,-7.458343E-2,8.5738546E-1,2.1401706E-1,-9.1438085E-1,1.1540922E0,-5.744959E-1,3.6734693E-2,-1.2395521E0,4.2207714E-2,-1.311583E-2,-7.390812E-2,2.5812468E-2,-8.132764E-2,2.71705E-2,-7.5713865E-2,4.9846526E-2,8.019236E-2,-1.4962383E-2,6.5888017E-3,-6.4713545E-2,-7.352006E-2,-2.9479815E-3,-3.478622E-2,7.195501E-2,8.536356E-2,-2.1112276E-2,-7.940333E-2,8.73795E-3,-3.649263E-2,3.4150463E-2,1.842669E-2,-6.731649E-2,3.169201E-2,-7.572706E-2,-7.605054E-2,4.0963147E-2,6.878906E-2,-6.622016E-2,-9.856813E-3,-5.7020873E-2,4.5575265E-2,-4.1405633E-2,2.197268E-2,-3.203434E-2,9.281863E-3,5.714059E-2,6.611245E-2,-3.1906974E-2,-3.2649983E-2,3.8014665E-2,6.3295074E-2,-1.7393319E-2,4.8532113E-2,-7.482222E-2,4.1186966E-2,-2.756604E-2,2.2855094E-2,-6.1666667E-2,7.648552E-2,-1.7363759E-2,-8.109438E-2,2.5460888E-2,4.0732265E-2,-7.297527E-2,3.9010096E-2,-6.5977275E-2],"categories":[],"categories_nodes":[],"categories_segments":[],"categories_sizes":[],"default_left":[0,0,0,0,0,0,0,0,0,0,0,0,0,0,0,0,0,0,0,0,0,0,0,0,0,0,0,0,0,0,0,0,0,0,0,0,0,0,0,0,0,0,0,0,0,0,0,0,0,0,0,0,0,0,0,0,0,0,0,0,0,0,0,0,0,0,0,0,0,0,0,0,0,0,0,0,0,0,0,0,0,0,0,0,0,0,0,0,0,0,0,0,0,0,0,0,0,0,0,0,0,0,0,0,0,0,0,0,0,0,0,0,0,0,0,0,0,0,0,0,0],"id":9,"left_children":[1,3,5,7,9,11,13,15,17,19,21,23,25,27,29,31,33,35,37,39,41,43,45,47,49,51,53,55,57,59,61,63,65,67,69,71,73,75,77,-1,79,81,83,85,87,89,91,93,95,97,99,101,-1,103,105,-1,107,109,111,113,115,117,119,-1,-1,-1,-1,-1,-1,-1,-1,-1,-1,-1,-1,-1,-1,-1,-1,-1,-1,-1,-1,-1,-1,-1,-1,-1,-1,-1,-1,-1,-1,-1,-1,-1,-1,-1,-1,-1,-1,-1,-1,-1,-1,-1,-1,-1,-1,-1,-1,-1,-1,-1,-1,-1,-1,-1,-1,-1,-1],"loss_changes":[4.4260373E2,1.4102322E2,2.3638475E2,7.4529816E1,6.004132E1,1.3483426E2,1.27296814E2,5.190613E1,4.546118E1,5.5331364E1,5.37937E1,1.1093848E2,5.7537933E1,5.621216E1,4.737236E1,6.2947685E1,3.9502888E1,3.845152E1,3.40316E1,2.1486567E1,2.8637276E1,2.8575623E1,3.6904217E1,6.51455E1,7.249962E1,2.2366312E1,4.408435E1,3.693096E1,3.909315E1,2.675429E1,3.1069E1,4.150937E1,2.8689445E1,1.2335411E1,3.0304245E1,1.5137718E1,2.4328651E1,3.0419586E1,1.3708597E1,0E0,1.3578102E1,1.200909E1,2.9956394E1,2.1830627E1,4.0071556E1,2.1296438E1,2.8374973E1,4.3632713E1,3.8743202E1,6.1587795E1,3.0013763E1,9.831733E0,0E0,4.319245E1,3.1574677E1,0E0,2.9064186E1,3.3954422E1,2.4107182E1,9.55324E0,2.3976887E1,2.7530205E1,2.652893E1,0E0,0E0,0E0,0E0,0E0,0E0,0E0,0E0,0E0,0E0,0E0,0E0,0E0,0E0,0E0,0E0,0E0,0E0,0E0,0E0,0E0,0E0,0E0,0E0,0E0,0E0,0E0,0E0,0E0,0E0,0E0,0E0,0E0,0E0,0E0,0E0,0E0,0E0,0E0,0E0,0E0,0E0,0E0,0E0,0E0,0E0,0E0,0E0,0E0,0E0,0E0,0E0,0E0,0E0,0E0,0E0,0E0,0E0],"parents":[2147483647,0,0,1,1,2,2,3,3,4,4,5,5,6,6,7,7,8,8,9,9,10,10,11,11,12,12,13,13,14,14,15,15,16,16,17,17,18,18,19,19,20,20,21,21,22,22,23,23,24,24,25,25,26,26,27,27,28,28,29,29,30,30,31,31,32,32,33,33,34,34,35,35,36,36,37,37,38,38,40,40,41,41,42,42,43,43,44,44,45,45,46,46,47,47,48,48,49,49,50,50,51,51,53,53,54,54,56,56,57,57,58,58,59,59,60,60,61,61,62,62],"right_children":[2,4,6,8,10,12,14,16,18,20,22,24,26,28,30,32,34,36,38,40,42,44,46,48,50,52,54,56,58,60,62,64,66,68,70,72,74,76,78,-1,80,82,84,86,88,90,92,94,96,98,100,102,-1,104,106,-1,108,110,112,114,116,118,120,-1,-1,-1,-1,-1,-1,-1,-1,-1,-1,-1,-1,-1,-1,-1,-1,-1,-1,-1,-1,-1,-1,-1,-1,-1,-1,-1,-1,-1,-1,-1,-1,-1,-1,-1,-1,-1,-1,-1,-1,-1,-1,-1,-1,-1,-1,-1,-1,-1,-1,-1,-1,-1,-1,-1,-1,-1,-1],"split_conditions":[1.414912E-2,2.5641097E-2,7.835776E-2,-1.0506655E-2,-4.2443138E-2,-9.203559E-3,-8.505528E-3,7.6535633E-3,-2.5350845E-3,-3.4973715E-2,6.3076265E-2,-2.1398274E-2,-7.985828E-2,-1.9093946E-2,-5.7191014E-2,6.5007545E-2,-3.7074123E-2,-5.828694E-2,7.721507E-2,5.873745E-3,-6.9129416E-3,7.580006E-2,1.9645026E-2,6.382441E-2,1.42992E-2,-2.3351677E-2,-1.4348844E-2,-2.6327897E-2,-3.9534446E-2,-6.6016293E-3,-8.194725E-2,-2.913869E-2,8.3537735E-2,5.6055624E-2,-9.935997E-2,-1.8032715E-2,1.09173E-3,6.713487E-2,9.758245E-3,-3.6680635E-2,-8.270842E-4,3.7271123E-2,3.5758868E-2,-1.0355273E-1,-1.7596767E-4,4.4003855E-2,2.919882E-2,-2.4615934E-33,3.3562273E-2,4.5165844E-2,-4.1953325E-2,-5.068805E-2,-8.2206845E-2,-7.724495E-2,8.35399E-2,-7.458343E-2,3.6593307E-2,-2.4275767E-2,-5.9550416E-2,-2.8044783E-2,4.3580826E-2,-3.658907E-2,-6.853176E-2,4.2207714E-2,-1.311583E-2,-7.390812E-2,2.5812468E-2,-8.132764E-2,2.71705E-2,-7.5713865E-2,4.9846526E-2,8.019236E-2,-1.4962383E-2,6.5888017E-3,-6.4713545E-2,-7.352006E-2,-2.9479815E-3,-3.478622E-2,7.195501E-2,8.536356E-2,-2.1112276E-2,-7.940333E-2,8.73795E-3,-3.649263E-2,3.4150463E-2,1.842669E-2,-6.731649E-2,3.169201E-2,-7.572706E-2,-7.605054E-2,4.0963147E-2,6.878906E-2,-6.622016E-2,-9.856813E-3,-5.7020873E-2,4.5575265E-2,-4.1405633E-2,2.197268E-2,-3.203434E-2,9.281863E-3,5.714059E-2,6.611245E-2,-3.1906974E-2,-3.2649983E-2,3.8014665E-2,6.3295074E-2,-1.7393319E-2,4.8532113E-2,-7.482222E-2,4.1186966E-2,-2.756604E-2,2.2855094E-2,-6.1666667E-2,7.648552E-2,-1.7363759E-2,-8.109438E-2,2.5460888E-2,4.0732265E-2,-7.297527E-2,3.9010096E-2,-6.5977275E-2],"split_indices":[68,6,99,55,322,256,108,105,380,175,344,125,125,273,350,99,320,22,66,307,100,4,278,27,51,350,105,183,339,120,253,371,66,293,218,5,149,208,300,0,282,239,52,318,313,378,208,223,64,247,87,276,0,143,227,0,351,119,16,253,61,281,362,0,0,0,0,0,0,0,0,0,0,0,0,0,0,0,0,0,0,0,0,0,0,0,0,0,0,0,0,0,0,0,0,0,0,0,0,0,0,0,0,0,0,0,0,0,0,0,0,0,0,0,0,0,0,0,0,0,0],"split_type":[0,0,0,0,0,0,0,0,0,0,0,0,0,0,0,0,0,0,0,0,0,0,0,0,0,0,0,0,0,0,0,0,0,0,0,0,0,0,0,0,0,0,0,0,0,0,0,0,0,0,0,0,0,0,0,0,0,0,0,0,0,0,0,0,0,0,0,0,0,0,0,0,0,0,0,0,0,0,0,0,0,0,0,0,0,0,0,0,0,0,0,0,0,0,0,0,0,0,0,0,0,0,0,0,0,0,0,0,0,0,0,0,0,0,0,0,0,0,0,0,0],"sum_hessian":[2.8608755E3,9.87709E2,1.8731665E3,4.8215985E2,5.055491E2,1.4278713E3,4.4529514E2,3.0324152E2,1.7891833E2,1.2352308E2,3.8202603E2,8.396414E2,5.882299E2,2.3244434E2,2.128508E2,1.8625995E2,1.1698157E2,6.7858795E1,1.1105954E2,2.7042673E1,9.64804E1,3.40041E2,4.1985027E1,2.9639795E2,5.4324347E2,1.9636831E1,5.6859314E2,1.0883327E2,1.2361106E2,3.4394188E1,1.784566E2,1.3852074E2,4.773922E1,1.1175751E1,1.0580582E2,2.045292E1,4.7405872E1,1.0029171E2,1.0767835E1,5.30325E0,2.1739422E1,3.3209846E1,6.3270557E1,3.06706E2,3.3335007E1,1.9664425E1,2.23206E1,2.2033632E2,7.6061646E1,3.2492856E2,2.183149E2,8.434643E0,1.12021885E1,2.6730057E2,3.0129257E2,6.258647E0,1.0257462E2,7.078988E1,5.2821182E1,1.4998142E1,1.9396046E1,2.1631067E1,1.5682555E2,5.6298313E1,8.222242E1,3.9493237E1,8.24598E0,8.067972E0,3.1077785E0,4.177028E0,1.0162879E2,1.519729E1,5.25563E0,2.7389044E1,2.001683E1,8.144606E1,1.8845648E1,4.2131004E0,6.554734E0,1.8617798E1,3.121625E0,2.8988043E1,4.2218027E0,4.079618E1,2.2474377E1,7.2194414E0,2.9948654E2,1.8814705E1,1.4520303E1,1.5259397E1,4.40503E0,1.8294449E1,4.0261517E0,1.474517E2,7.2884605E1,6.0750637E1,1.5311008E1,2.596704E2,6.5258156E1,4.0646523E1,1.7766838E2,4.476678E0,3.957965E0,2.2958136E1,2.4434242E2,2.8903854E2,1.2254012E1,9.842638E1,4.148248E0,3.9358116E1,3.1431765E1,9.884613E0,4.293657E1,1.1981647E1,3.0164957E0,9.610781E0,9.785265E0,1.4531519E1,7.099548E0,5.6410646E0,1.5118448E2],"tree_param":{"num_deleted":"0","num_feature":"384","num_nodes":"121","size_leaf_vector":"1"}},{"base_weights":[2.1528816E-2,-6.7358756E-1,2.4421717E-1,-9.0431416E-1,-1.692006E-1,4.2978132E-1,-4.0074003E-1,-1.0515912E0,9.3854696E-2,-1.0368991E0,1.0057546E-1,1.5864554E-1,8.3019716E-1,-8.4579396E-1,1.0619692E-1,-3.8870594E-1,-1.2729504E0,-1.0983175E0,5.4435396E-1,2.514606E-1,-8.0860786E-2,2.891077E-1,-7.3223315E-2,-2.1045493E-1,4.5069835E-1,5.0706136E-1,1.1173185E0,2.281902E-1,-1.0628331E0,-7.521568E-1,3.5659245E-1,-8.265258E-1,4.5935747E-1,-1.3422581E0,4.4453037E-1,-7.6834545E-2,3.4349535E-2,-1.1201144E0,9.585106E-1,-1.0052865E0,1.191882E0,-4.1321486E-1,6.4187247E-1,1.1788846E0,-3.3662668E-1,6.1738104E-1,-1.7434742E-1,1.1701783E0,2.4928308E-1,-5.546531E-2,1.1561431E0,8.6324114E-1,-9.01376E-1,-1.2235781E0,-1.8884638E-1,-1.2076715E0,3.5488766E-1,9.9438334E-1,-5.1245424E-3,5.3732414E-3,-6.762799E-2,3.9724268E-2,-6.901621E-2,-6.869943E-2,1.8088616E-2,-6.3561015E-2,6.482062E-2,-1.8794492E-2,-7.064973E-2,-6.1262693E-2,5.956191E-2,-1.6707202E-2,-6.951033E-2,8.4633246E-2,1.4506732E-2,2.3004806E-2,-5.803727E-2,-2.6073528E-2,4.6897896E-2,-3.7165504E-2,7.17363E-2,-2.6600897E-2,3.126719E-2,3.5210885E-2,-2.805282E-2,-4.8389714E-2,1.7521081E-2,6.376221E-2,-4.321022E-2,2.8976634E-2,-1.9113109E-2,6.0299333E-2,-9.550666E-3,6.3811585E-2,-7.0235245E-2,7.092169E-2,-7.849272E-2,-6.87604E-2,-1.4484504E-2,4.4295605E-2,-4.3999195E-2,3.194069E-2,-7.460955E-2,6.0527958E-2,-4.4616483E-2,-1.7592197E-2,6.453293E-2,4.582385E-2,-1.6313916E-2],"categories":[],"categories_nodes":[],"categories_segments":[],"categories_sizes":[],"default_left":[0,0,0,0,0,0,0,0,0,0,0,0,0,0,0,0,0,0,0,0,0,0,0,0,0,0,0,0,0,0,0,0,0,0,0,0,0,0,0,0,0,0,0,0,0,0,0,0,0,0,0,0,0,0,0,0,0,0,0,0,0,0,0,0,0,0,0,0,0,0,0,0,0,0,0,0,0,0,0,0,0,0,0,0,0,0,0,0,0,0,0,0,0,0,0,0,0,0,0,0,0,0,0,0,0,0,0,0,0],"id":10,"left_children":[1,3,5,7,9,11,13,15,17,19,21,23,25,27,29,31,33,35,37,39,-1,41,-1,43,45,47,49,51,53,55,57,59,61,63,65,-1,-1,67,69,71,73,75,77,79,81,83,85,87,89,-1,91,93,95,97,99,101,103,105,107,-1,-1,-1,-1,-1,-1,-1,-1,-1,-1,-1,-1,-1,-1,-1,-1,-1,-1,-1,-1,-1,-1,-1,-1,-1,-1,-1,-1,-1,-1,-1,-1,-1,-1,-1,-1,-1,-1,-1,-1,-1,-1,-1,-1,-1,-1,-1,-1,-1,-1],"loss_changes":[4.398444E2,8.008093E1,2.577224E2,6.9606445E1,5.104604E1,1.8135315E2,1.0868584E2,5.9976135E1,3.3741283E1,3.9061947E1,4.967479E1,1.0767163E2,6.2029663E1,6.001393E1,4.882293E1,3.9219547E1,3.731906E1,1.4560434E1,3.240853E1,2.1197163E1,0E0,3.7381004E1,0E0,7.779192E1,5.81848E1,5.428215E1,3.2094086E1,3.2291656E1,2.9762192E1,2.6318375E1,4.0509293E1,3.4215984E1,2.3451359E1,1.6544067E1,2.023642E1,0E0,0E0,1.5434856E0,2.0232132E1,1.5466433E0,4.0862675E0,3.362998E1,3.4972683E1,1.9252155E1,7.655687E1,4.5452408E1,4.952943E1,2.014621E1,4.8435043E1,0E0,2.3785461E1,2.8610876E1,2.7502773E1,2.511087E1,2.629374E1,2.0181957E1,1.787766E1,2.5798649E1,3.3752464E1,0E0,0E0,0E0,0E0,0E0,0E0,0E0,0E0,0E0,0E0,0E0,0E0,0E0,0E0,0E0,0E0,0E0,0E0,0E0,0E0,0E0,0E0,0E0,0E0,0E0,0E0,0E0,0E0,0E0,0E0,0E0,0E0,0E0,0E0,0E0,0E0,0E0,0E0,0E0,0E0,0E0,0E0,0E0,0E0,0E0,0E0,0E0,0E0,0E0,0E0],"parents":[2147483647,0,0,1,1,2,2,3,3,4,4,5,5,6,6,7,7,8,8,9,9,10,10,11,11,12,12,13,13,14,14,15,15,16,16,17,17,18,18,19,19,21,21,23,23,24,24,25,25,26,26,27,27,28,28,29,29,30,30,31,31,32,32,33,33,34,34,37,37,38,38,39,39,40,40,41,41,42,42,43,43,44,44,45,45,46,46,47,47,48,48,50,50,51,51,52,52,53,53,54,54,55,55,56,56,57,57,58,58],"right_children":[2,4,6,8,10,12,14,16,18,20,22,24,26,28,30,32,34,36,38,40,-1,42,-1,44,46,48,50,52,54,56,58,60,62,64,66,-1,-1,68,70,72,74,76,78,80,82,84,86,88,90,-1,92,94,96,98,100,102,104,106,108,-1,-1,-1,-1,-1,-1,-1,-1,-1,-1,-1,-1,-1,-1,-1,-1,-1,-1,-1,-1,-1,-1,-1,-1,-1,-1,-1,-1,-1,-1,-1,-1,-1,-1,-1,-1,-1,-1,-1,-1,-1,-1,-1,-1,-1,-1,-1,-1,-1,-1],"split_conditions":[-1.7942928E-3,3.223704E-2,8.114542E-2,6.3076265E-2,5.3198235E-3,-9.865433E-3,1.3473481E-2,-3.1294413E-2,-8.21526E-3,-2.2592389E-3,8.4432E-2,2.0819366E-2,-1.3449287E-2,-5.6342565E-2,-5.3578992E-3,3.349418E-2,1.18207596E-1,5.9944965E-2,-2.5468078E-2,5.498068E-2,-8.0860786E-2,-6.7325053E-3,-7.3223315E-2,-7.4744575E-2,8.467592E-3,-7.0615456E-2,-6.884548E-2,-1.574565E-2,5.119868E-2,4.300435E-2,-3.5837635E-2,2.0914478E-3,2.1112718E-2,1.199672E-1,4.8225496E-2,-7.6834545E-2,3.4349535E-2,-8.501922E-3,-2.6491484E-2,8.407357E-3,-1.5046302E-2,1.1501949E-2,-8.556431E-3,2.9830478E-2,5.203771E-2,7.022337E-2,1.6101955E-2,6.1914995E-2,-1.2778375E-2,-5.546531E-2,6.0806263E-2,4.328519E-2,-6.9585554E-2,1.7448079E-2,-2.3968503E-2,-1.0287751E-1,4.3852637E-3,-1.7225936E-2,-6.5179914E-2,5.3732414E-3,-6.762799E-2,3.9724268E-2,-6.901621E-2,-6.869943E-2,1.8088616E-2,-6.3561015E-2,6.482062E-2,-1.8794492E-2,-7.064973E-2,-6.1262693E-2,5.956191E-2,-1.6707202E-2,-6.951033E-2,8.4633246E-2,1.4506732E-2,2.3004806E-2,-5.803727E-2,-2.6073528E-2,4.6897896E-2,-3.7165504E-2,7.17363E-2,-2.6600897E-2,3.126719E-2,3.5210885E-2,-2.805282E-2,-4.8389714E-2,1.7521081E-2,6.376221E-2,-4.321022E-2,2.8976634E-2,-1.9113109E-2,6.0299333E-2,-9.550666E-3,6.3811585E-2,-7.0235245E-2,7.092169E-2,-7.849272E-2,-6.87604E-2,-1.4484504E-2,4.4295605E-2,-4.3999195E-2,3.194069E-2,-7.460955E-2,6.0527958E-2,-4.4616483E-2,-1.7592197E-2,6.453293E-2,4.582385E-2,-1.6313916E-2],"split_indices":[68,265,99,344,186,256,278,173,321,69,6,265,105,350,183,10,261,82,151,361,0,241,0,349,351,350,301,322,84,159,351,128,235,27,23,0,0,168,10,245,161,30,200,44,239,6,277,375,55,0,178,111,137,218,318,306,247,343,305,0,0,0,0,0,0,0,0,0,0,0,0,0,0,0,0,0,0,0,0,0,0,0,0,0,0,0,0,0,0,0,0,0,0,0,0,0,0,0,0,0,0,0,0,0,0,0,0,0,0],"split_type":[0,0,0,0,0,0,0,0,0,0,0,0,0,0,0,0,0,0,0,0,0,0,0,0,0,0,0,0,0,0,0,0,0,0,0,0,0,0,0,0,0,0,0,0,0,0,0,0,0,0,0,0,0,0,0,0,0,0,0,0,0,0,0,0,0,0,0,0,0,0,0,0,0,0,0,0,0,0,0,0,0,0,0,0,0,0,0,0,0,0,0,0,0,0,0,0,0,0,0,0,0,0,0,0,0,0,0,0,0],"sum_hessian":[2.8394133E3,6.8843994E2,2.1509734E3,4.7181848E2,2.1662143E2,1.6706385E3,4.8033493E2,4.1110727E2,6.0711216E1,5.0701927E1,1.659195E2,9.969586E2,6.7367993E2,2.5542331E2,2.2491162E2,1.03605385E2,3.075019E2,1.6255556E1,4.4455658E1,1.5921445E1,3.4780483E1,1.488086E2,1.7110907E1,4.405123E2,5.564463E2,3.182627E2,3.5541727E2,4.2931602E1,2.1249171E2,5.0340603E1,1.7457101E2,6.834638E1,3.5259E1,2.957842E2,1.17176895E1,1.3162764E1,3.092792E0,8.517962E0,3.59377E1,6.7850976E0,9.136347E0,4.969634E1,9.911225E1,3.5979607E1,4.045327E2,4.3930728E2,1.1713904E2,8.8097755E1,2.3016493E2,5.6185174E0,3.4979874E2,2.763229E1,1.5299314E1,1.7914337E2,3.334834E1,3.560099E1,1.4739612E1,6.2543415E1,1.120276E2,2.4911285E1,4.3435097E1,3.0306347E1,4.952653E0,2.905673E2,5.216909E0,3.7243457E0,7.9933443E0,3.0503292E0,5.467633E0,3.0503588E0,3.2887337E1,3.153966E0,3.6311316E0,5.310231E0,3.8261158E0,2.309724E1,2.6599098E1,1.9953228E1,7.915902E1,4.002504E0,3.1977102E1,3.3660907E2,6.792363E1,4.095321E2,2.977516E1,4.6295845E1,7.084319E1,8.4126205E1,3.9715528E0,1.5118773E2,7.89772E1,3.374193E2,1.2379414E1,2.3745531E1,3.8867605E0,3.171483E0,1.21278305E1,1.5371329E2,2.5430086E1,1.2941596E1,2.0406742E1,4.58698E0,3.101401E1,8.759454E0,5.980158E0,1.1247772E1,5.1295643E1,2.8471224E1,8.355638E1],"tree_param":{"num_deleted":"0","num_feature":"384","num_nodes":"109","size_leaf_vector":"1"}},{"base_weights":[2.0682316E-2,3.0654E-1,-4.416923E-1,-7.96856E-2,5.7666916E-1,-8.185987E-1,-9.8002106E-2,-3.3622962E-1,5.914735E-1,7.403038E-1,6.649066E-2,-1.0019252E0,1.339568E-1,3.096606E-1,-4.9150768E-1,2.3864403E-1,-6.4049923E-1,8.7935865E-1,-5.683939E-1,8.503169E-1,-7.048784E-2,2.7907157E-1,-1.0362141E0,2.410173E-1,-1.0677133E0,4.8146927E-1,-1.1851476E0,6.180965E-1,-4.0881044E-1,-2.840922E-1,-1.2891864E0,-1.255274E0,4.0153196E-1,-3.5988528E-1,-1.212359E0,1.0290759E0,-7.678363E-1,-1.199808E0,4.7013053E-1,2.6318985E-1,9.66239E-1,-7.2565216E-1,5.199635E-1,-4.331411E-2,8.9443547E-1,4.607665E-2,-1.324515E0,9.985552E-1,-6.844064E-2,8.3482295E-1,-1.1045514E0,-1.0130659E0,8.304832E-1,-7.817521E-2,2.515021E-2,7.4873567E-1,-7.640896E-2,1.2246704E-2,-1.453469E0,3.8991205E-2,-9.2696536E-1,-1.4675678E0,1.9835271E-2,-8.402663E-2,3.2907896E-2,-2.6123209E-2,3.4780864E-2,-5.8931373E-3,-6.1979927E-2,-6.745827E-2,2.019356E-2,5.7491004E-2,-4.4241548E-2,-8.360463E-2,2.3690563E-2,-8.795812E-2,4.9192044E-3,5.4712724E-2,-7.139015E-2,-4.4861298E-2,3.0576408E-2,1.5142511E-2,5.3007253E-2,-5.0712E-2,5.6272984E-2,3.800172E-2,-8.111315E-2,3.6279745E-2,-2.588296E-2,6.0869873E-2,9.541569E-3,3.8546886E-2,-8.0769956E-2,-2.3857588E-2,7.6674685E-2,8.005465E-2,-1.6050544E-2,-6.2396485E-2,-3.1110762E-2,2.754624E-2,-7.676449E-2,6.1558913E-2,-1.4037244E-3,4.156265E-2,-7.187841E-2,2.0019973E-2,-7.59317E-2,-7.978292E-2,-1.7397037E-2,1.1829178E-2,-6.003764E-2,5.6945868E-2,-5.6865096E-2,-7.9576895E-2,-6.899552E-3],"categories":[],"categories_nodes":[],"categories_segments":[],"categories_sizes":[],"default_left":[0,0,0,0,0,0,0,0,0,0,0,0,0,0,0,0,0,0,0,0,0,0,0,0,0,0,0,0,0,0,0,0,0,0,0,0,0,0,0,0,0,0,0,0,0,0,0,0,0,0,0,0,0,0,0,0,0,0,0,0,0,0,0,0,0,0,0,0,0,0,0,0,0,0,0,0,0,0,0,0,0,0,0,0,0,0,0,0,0,0,0,0,0,0,0,0,0,0,0,0,0,0,0,0,0,0,0,0,0,0,0,0,0,0,0],"id":11,"left_children":[1,3,5,7,9,11,13,15,17,19,21,23,25,27,29,31,33,35,37,39,41,43,45,47,49,51,53,55,57,59,61,63,65,67,69,71,73,75,77,79,81,83,85,87,89,-1,91,93,-1,95,97,99,101,-1,-1,103,-1,105,107,109,111,113,-1,-1,-1,-1,-1,-1,-1,-1,-1,-1,-1,-1,-1,-1,-1,-1,-1,-1,-1,-1,-1,-1,-1,-1,-1,-1,-1,-1,-1,-1,-1,-1,-1,-1,-1,-1,-1,-1,-1,-1,-1,-1,-1,-1,-1,-1,-1,-1,-1,-1,-1,-1,-1],"loss_changes":[3.754799E2,1.8319402E2,1.4051295E2,1.24747154E2,8.619708E1,9.050751E1,9.1400566E1,9.180163E1,6.741383E1,6.982294E1,5.935826E1,3.5754852E1,3.9263256E1,6.230058E1,4.7584915E1,4.4808918E1,5.458757E1,4.0480133E1,2.7092714E1,4.662265E1,3.688239E1,4.2105606E1,2.43274E1,2.8973963E1,2.9830536E1,3.6059715E1,1.2212517E1,5.6183365E1,3.727407E1,4.8076504E1,1.8483566E1,1.5868547E1,4.517955E1,4.9129814E1,2.5408463E1,3.520952E1,1.649088E1,1.8646984E1,2.0533096E1,4.7008858E1,3.5487427E1,2.5260729E1,2.7058998E1,5.1474762E1,1.6343548E1,0E0,2.3246143E1,1.3340355E1,0E0,7.9575596E0,2.7236603E1,1.165373E1,1.905383E1,0E0,0E0,3.4697647E1,0E0,3.706907E1,3.2709465E0,3.8227383E1,3.4928658E1,8.688187E0,0E0,0E0,0E0,0E0,0E0,0E0,0E0,0E0,0E0,0E0,0E0,0E0,0E0,0E0,0E0,0E0,0E0,0E0,0E0,0E0,0E0,0E0,0E0,0E0,0E0,0E0,0E0,0E0,0E0,0E0,0E0,0E0,0E0,0E0,0E0,0E0,0E0,0E0,0E0,0E0,0E0,0E0,0E0,0E0,0E0,0E0,0E0,0E0,0E0,0E0,0E0,0E0,0E0],"parents":[2147483647,0,0,1,1,2,2,3,3,4,4,5,5,6,6,7,7,8,8,9,9,10,10,11,11,12,12,13,13,14,14,15,15,16,16,17,17,18,18,19,19,20,20,21,21,22,22,23,23,24,24,25,25,26,26,27,27,28,28,29,29,30,30,31,31,32,32,33,33,34,34,35,35,36,36,37,37,38,38,39,39,40,40,41,41,42,42,43,43,44,44,46,46,47,47,49,49,50,50,51,51,52,52,55,55,57,57,58,58,59,59,60,60,61,61],"right_children":[2,4,6,8,10,12,14,16,18,20,22,24,26,28,30,32,34,36,38,40,42,44,46,48,50,52,54,56,58,60,62,64,66,68,70,72,74,76,78,80,82,84,86,88,90,-1,92,94,-1,96,98,100,102,-1,-1,104,-1,106,108,110,112,114,-1,-1,-1,-1,-1,-1,-1,-1,-1,-1,-1,-1,-1,-1,-1,-1,-1,-1,-1,-1,-1,-1,-1,-1,-1,-1,-1,-1,-1,-1,-1,-1,-1,-1,-1,-1,-1,-1,-1,-1,-1,-1,-1,-1,-1,-1,-1,-1,-1,-1,-1,-1,-1],"split_conditions":[6.638918E-2,-1.6766459E-2,1.0434017E-2,5.154958E-4,2.862864E-2,5.875951E-2,3.958489E-3,-3.7893318E-3,-3.861381E-4,1.4838167E-2,4.1735563E-3,-5.877011E-2,1.2380392E-3,4.447088E-3,2.3638822E-2,-7.367034E-2,-2.1482283E-2,5.1362935E-2,2.568789E-2,-2.0954285E-2,2.749274E-2,5.9772532E-2,-8.560897E-2,-1.1122713E-3,-1.285378E-1,-2.131644E-2,7.459042E-2,5.8335673E-2,2.6909541E-2,1.539163E-2,9.482898E-2,7.0681676E-2,1.4137295E-2,3.7561532E-3,6.282269E-2,6.126995E-2,5.405718E-3,4.8195217E-2,1.2030658E-2,-8.087972E-3,-2.0422004E-2,8.304912E-2,5.9291396E-2,-5.251662E-2,1.8623356E-2,4.607665E-2,-6.5386444E-2,-2.7238023E-2,-6.844064E-2,8.195676E-4,4.6127383E-2,-6.3006446E-2,-3.3470627E-2,-7.817521E-2,2.515021E-2,8.4452495E-2,-7.640896E-2,-1.3109823E-2,5.545141E-2,-1.5298506E-8,-7.2449796E-2,8.666812E-2,1.9835271E-2,-8.402663E-2,3.2907896E-2,-2.6123209E-2,3.4780864E-2,-5.8931373E-3,-6.1979927E-2,-6.745827E-2,2.019356E-2,5.7491004E-2,-4.4241548E-2,-8.360463E-2,2.3690563E-2,-8.795812E-2,4.9192044E-3,5.4712724E-2,-7.139015E-2,-4.4861298E-2,3.0576408E-2,1.5142511E-2,5.3007253E-2,-5.0712E-2,5.6272984E-2,3.800172E-2,-8.111315E-2,3.6279745E-2,-2.588296E-2,6.0869873E-2,9.541569E-3,3.8546886E-2,-8.0769956E-2,-2.3857588E-2,7.6674685E-2,8.005465E-2,-1.6050544E-2,-6.2396485E-2,-3.1110762E-2,2.754624E-2,-7.676449E-2,6.1558913E-2,-1.4037244E-3,4.156265E-2,-7.187841E-2,2.0019973E-2,-7.59317E-2,-7.978292E-2,-1.7397037E-2,1.1829178E-2,-6.003764E-2,5.6945868E-2,-5.6865096E-2,-7.9576895E-2,-6.899552E-3],"split_indices":[99,125,183,256,169,265,101,64,55,118,216,128,381,121,182,215,166,271,219,50,295,200,174,178,16,198,280,16,217,133,324,359,27,263,144,131,207,315,271,344,194,265,120,382,227,0,65,278,0,61,275,74,338,0,0,317,0,216,38,319,318,327,0,0,0,0,0,0,0,0,0,0,0,0,0,0,0,0,0,0,0,0,0,0,0,0,0,0,0,0,0,0,0,0,0,0,0,0,0,0,0,0,0,0,0,0,0,0,0,0,0,0,0,0,0],"split_type":[0,0,0,0,0,0,0,0,0,0,0,0,0,0,0,0,0,0,0,0,0,0,0,0,0,0,0,0,0,0,0,0,0,0,0,0,0,0,0,0,0,0,0,0,0,0,0,0,0,0,0,0,0,0,0,0,0,0,0,0,0,0,0,0,0,0,0,0,0,0,0,0,0,0,0,0,0,0,0,0,0,0,0,0,0,0,0,0,0,0,0,0,0,0,0,0,0,0,0,0,0,0,0,0,0,0,0,0,0,0,0,0,0,0,0],"sum_hessian":[2.83879E3,1.7544554E3,1.0843346E3,7.223532E2,1.0321022E3,5.165168E2,5.678178E2,5.2295703E2,1.993962E2,7.81116E2,2.5098616E2,4.331097E2,8.340707E1,2.789967E2,2.8882108E2,1.8106898E2,3.4188806E2,1.5994008E2,3.9456112E1,6.8774927E2,9.336672E1,2.1104713E2,3.9939034E1,2.163794E1,4.1147177E2,6.651814E1,1.688892E1,1.952966E2,8.370011E1,2.3029504E2,5.852605E1,1.714236E1,1.6392662E2,2.3043965E2,1.1144841E2,1.46958E2,1.298208E1,2.4440931E1,1.501518E1,1.1393863E2,5.7381067E2,4.4149498E1,4.9217224E1,1.3910199E2,7.1945145E1,4.8446093E0,3.509442E1,1.4972189E1,6.6657505E0,7.4043727E0,4.0406738E2,1.2232765E1,5.4285378E1,1.385705E1,3.0318706E0,1.8470514E2,1.0591458E1,6.0359898E1,2.3340212E1,1.5389345E2,7.6401596E1,5.3043144E1,5.482908E0,1.4124845E1,3.0175147E0,3.938984E1,1.2453678E2,1.8160997E2,4.882969E1,1.0290334E2,8.54506E0,1.3861246E2,8.345535E0,7.3110094E0,5.6710706E0,1.6832987E1,7.607945E0,1.1618091E1,3.3970895E0,2.5942135E1,8.799649E1,7.167754E1,5.0213312E2,3.8586037E1,5.5634623E0,4.4837658E1,4.379566E0,5.2870205E1,8.623178E1,4.8810406E1,2.3134739E1,4.076692E0,3.101773E1,4.0121384E0,1.0960051E1,4.2208776E0,3.183495E0,3.1025446E2,9.381293E1,3.0483625E0,9.184402E0,3.6715828E1,1.7569551E1,1.7858464E2,6.120498E0,4.874031E1,1.1619589E1,2.0287554E1,3.0526588E0,1.3343546E2,2.0457985E1,6.652024E0,6.974957E1,4.833898E1,4.704162E0],"tree_param":{"num_deleted":"0","num_feature":"384","num_nodes":"115","size_leaf_vector":"1"}},{"base_weights":[2.061938E-3,1.7753549E-1,-6.0716355E-1,-1.8904604E-1,4.3297318E-1,9.833415E-1,-6.874941E-1,-4.454911E-1,5.155276E-1,5.7339984E-1,-4.106866E-1,1.5135741E0,-4.6656594E-1,-2.021762E-1,-8.9513564E-1,-4.4125944E-2,-8.063613E-1,7.825304E-1,-6.874082E-1,4.8556782E-2,7.486171E-1,-1.0676601E0,1.1662716E-1,8.254359E-2,3.578409E-2,4.150207E-2,-6.3430265E-2,-6.331726E-1,4.3277508E-1,-2.7675226E-1,-1.0721091E0,3.069924E-1,-5.8678335E-1,-1.0237557E0,-2.0978203E-1,-1.2755692E-2,1.0686893E0,4.0061578E-1,-1.4227569E0,-6.637508E-1,3.7780255E-1,4.4483185E-1,9.747833E-1,-1.3132304E0,4.9103186E-1,-8.681078E-1,4.7061285E-1,9.359472E-1,-9.175535E-1,-1.1584091E0,7.0179385E-1,3.9025807E-1,-1.0829487E0,-1.3309422E0,-7.439216E-1,-5.500887E-2,2.5288954E-2,-4.19971E-2,3.756677E-2,-7.699167E-2,-3.898421E-2,-7.338975E-2,5.9058666E-3,-4.2498138E-2,5.2803423E-2,5.7492174E-2,-4.820272E-2,-5.342081E-2,6.2065013E-2,1.9158099E-2,-8.360705E-2,-8.823847E-3,-7.61387E-2,2.5977593E-4,5.2321117E-2,2.6000861E-2,-6.718953E-2,-4.0621467E-2,5.047654E-2,-7.524698E-2,4.3337867E-3,6.780815E-2,-4.0311974E-2,4.915838E-2,-6.576072E-2,-5.4225482E-2,4.001785E-2,7.3473416E-2,-1.4072319E-2,-6.407809E-2,1.9725429E-2,-7.332309E-2,-1.3806613E-2,-8.575621E-3,6.1278965E-2,3.7333842E-2,-5.5266555E-2,-7.140173E-2,1.2084338E-2,-6.8555795E-2,3.8348984E-2,-6.2332526E-3,-5.450504E-2],"categories":[],"categories_nodes":[],"categories_segments":[],"categories_sizes":[],"default_left":[0,0,0,0,0,0,0,0,0,0,0,0,0,0,0,0,0,0,0,0,0,0,0,0,0,0,0,0,0,0,0,0,0,0,0,0,0,0,0,0,0,0,0,0,0,0,0,0,0,0,0,0,0,0,0,0,0,0,0,0,0,0,0,0,0,0,0,0,0,0,0,0,0,0,0,0,0,0,0,0,0,0,0,0,0,0,0,0,0,0,0,0,0,0,0,0,0,0,0,0,0,0,0],"id":12,"left_children":[1,3,5,7,9,11,13,15,17,19,21,23,25,27,29,31,33,35,37,39,41,43,45,-1,-1,-1,-1,47,49,51,53,55,57,59,61,63,65,67,69,71,73,75,77,79,81,83,85,87,89,91,93,95,97,99,101,-1,-1,-1,-1,-1,-1,-1,-1,-1,-1,-1,-1,-1,-1,-1,-1,-1,-1,-1,-1,-1,-1,-1,-1,-1,-1,-1,-1,-1,-1,-1,-1,-1,-1,-1,-1,-1,-1,-1,-1,-1,-1,-1,-1,-1,-1,-1,-1],"loss_changes":[2.9765808E2,2.0250336E2,8.022835E1,1.607549E2,1.5120471E2,2.4036428E1,5.9606445E1,9.438475E1,7.6832184E1,1.0046637E2,6.3321182E1,1.2785645E0,1.0298488E1,4.927832E1,4.514441E1,5.9186935E1,4.4296356E1,4.435927E1,3.5516804E1,6.465214E1,5.5855347E1,3.1772873E1,3.5998283E1,0E0,0E0,0E0,0E0,4.863712E1,3.206004E1,5.0829853E1,2.6403656E1,5.333622E1,4.196053E1,3.045111E1,3.8502975E1,4.7920246E1,2.4749634E1,2.4044825E1,1.247797E1,3.6218006E1,4.6940163E1,4.7965027E1,2.9932861E1,1.9058083E1,1.4332635E1,2.3929935E1,3.971205E1,1.1405114E1,4.403837E1,2.5667858E0,2.9056904E1,2.8561632E1,1.9866684E1,1.6140167E1,3.0832497E1,0E0,0E0,0E0,0E0,0E0,0E0,0E0,0E0,0E0,0E0,0E0,0E0,0E0,0E0,0E0,0E0,0E0,0E0,0E0,0E0,0E0,0E0,0E0,0E0,0E0,0E0,0E0,0E0,0E0,0E0,0E0,0E0,0E0,0E0,0E0,0E0,0E0,0E0,0E0,0E0,0E0,0E0,0E0,0E0,0E0,0E0,0E0,0E0],"parents":[2147483647,0,0,1,1,2,2,3,3,4,4,5,5,6,6,7,7,8,8,9,9,10,10,11,11,12,12,13,13,14,14,15,15,16,16,17,17,18,18,19,19,20,20,21,21,22,22,27,27,28,28,29,29,30,30,31,31,32,32,33,33,34,34,35,35,36,36,37,37,38,38,39,39,40,40,41,41,42,42,43,43,44,44,45,45,46,46,47,47,48,48,49,49,50,50,51,51,52,52,53,53,54,54],"right_children":[2,4,6,8,10,12,14,16,18,20,22,24,26,28,30,32,34,36,38,40,42,44,46,-1,-1,-1,-1,48,50,52,54,56,58,60,62,64,66,68,70,72,74,76,78,80,82,84,86,88,90,92,94,96,98,100,102,-1,-1,-1,-1,-1,-1,-1,-1,-1,-1,-1,-1,-1,-1,-1,-1,-1,-1,-1,-1,-1,-1,-1,-1,-1,-1,-1,-1,-1,-1,-1,-1,-1,-1,-1,-1,-1,-1,-1,-1,-1,-1,-1,-1,-1,-1,-1,-1],"split_conditions":[6.209405E-2,4.4954796E-3,-9.536808E-2,-2.857395E-3,4.504466E-2,-7.905273E-2,-2.398209E-2,-2.1100605E-2,1.1033756E-2,-1.3381812E-3,5.3058597E-3,3.7054636E-2,-5.504662E-2,2.878902E-2,-4.020129E-2,-2.6500437E-2,3.671843E-2,-3.650945E-2,-8.126013E-3,-3.485673E-2,-1.9102057E-3,9.0112075E-2,2.725411E-3,8.254359E-2,3.578409E-2,4.150207E-2,-6.3430265E-2,-3.9952837E-2,-3.45533E-2,-1.3663168E-2,-1.486095E-2,-4.4914305E-2,6.2394578E-2,-1.8995415E-2,-2.9111786E-2,3.371685E-2,5.7379957E-2,3.6753889E-3,-3.904484E-2,1.2875095E-2,3.601452E-2,8.1347175E-2,-4.4232935E-2,6.200424E-2,-1.8407365E-2,-4.4716474E-2,-8.953747E-3,-1.6851144E-2,5.4806694E-2,4.891906E-2,6.2914565E-3,-1.5209654E-3,2.819833E-2,1.5148835E-1,-1.5121279E-2,-5.500887E-2,2.5288954E-2,-4.19971E-2,3.756677E-2,-7.699167E-2,-3.898421E-2,-7.338975E-2,5.9058666E-3,-4.2498138E-2,5.2803423E-2,5.7492174E-2,-4.820272E-2,-5.342081E-2,6.2065013E-2,1.9158099E-2,-8.360705E-2,-8.823847E-3,-7.61387E-2,2.5977593E-4,5.2321117E-2,2.6000861E-2,-6.718953E-2,-4.0621467E-2,5.047654E-2,-7.524698E-2,4.3337867E-3,6.780815E-2,-4.0311974E-2,4.915838E-2,-6.576072E-2,-5.4225482E-2,4.001785E-2,7.3473416E-2,-1.4072319E-2,-6.407809E-2,1.9725429E-2,-7.332309E-2,-1.3806613E-2,-8.575621E-3,6.1278965E-2,3.7333842E-2,-5.5266555E-2,-7.140173E-2,1.2084338E-2,-6.8555795E-2,3.8348984E-2,-6.2332526E-3,-5.450504E-2],"split_indices":[6,3,67,256,169,305,377,334,314,265,126,71,291,370,291,55,278,29,380,105,160,153,210,0,0,0,0,128,44,318,239,96,159,327,332,38,332,278,120,317,364,309,21,160,107,313,27,65,344,267,241,141,367,92,335,0,0,0,0,0,0,0,0,0,0,0,0,0,0,0,0,0,0,0,0,0,0,0,0,0,0,0,0,0,0,0,0,0,0,0,0,0,0,0,0,0,0,0,0,0,0,0,0],"split_type":[0,0,0,0,0,0,0,0,0,0,0,0,0,0,0,0,0,0,0,0,0,0,0,0,0,0,0,0,0,0,0,0,0,0,0,0,0,0,0,0,0,0,0,0,0,0,0,0,0,0,0,0,0,0,0,0,0,0,0,0,0,0,0,0,0,0,0,0,0,0,0,0,0,0,0,0,0,0,0,0,0,0,0,0,0,0,0,0,0,0,0,0,0,0,0,0,0,0,0,0,0,0,0],"sum_hessian":[2.7823684E3,2.1607283E3,6.216401E2,8.8742883E2,1.2732994E3,2.934678E1,5.922933E2,6.508906E2,2.3653824E2,1.0918774E3,1.81422E2,2.1456285E1,7.890496E0,1.780689E2,4.142244E2,3.0868683E2,3.4220377E2,1.9385892E2,4.267932E1,2.7360434E2,8.182731E2,8.0323395E1,1.01098595E2,1.739414E1,4.062145E0,3.002166E0,4.8883295E0,1.0607167E2,7.1997215E1,9.27388E1,3.214856E2,1.876834E2,1.2100345E2,2.502839E2,9.1919876E1,5.1549404E1,1.4230951E2,1.7395739E1,2.528358E1,8.616799E1,1.8743634E2,3.5047873E2,4.677943E2,6.952697E1,1.0796422E1,2.634854E1,7.475006E1,1.5922945E1,9.014873E1,9.933977E0,6.206324E1,5.1032635E1,4.1706165E1,1.7802576E2,1.4345984E2,2.2670334E1,1.6501306E2,1.02065895E2,1.893755E1,7.865747E1,1.7162642E2,1.8286366E1,7.363351E1,2.902162E1,2.2527786E1,1.3726381E2,5.0457063E0,6.233058E0,1.1162682E1,3.0027416E0,2.2280838E1,5.574981E1,3.0418184E1,1.2100866E2,6.642768E1,3.370212E2,1.3457538E1,8.494697E0,4.5929962E2,6.1086494E1,8.440479E0,6.449769E0,4.346653E0,4.8923736E0,2.1456167E1,1.267656E1,6.2073498E1,1.0927099E1,4.9958467E0,7.0588455E1,1.9560274E1,6.872326E0,3.0616508E0,2.3520355E1,3.854289E1,4.1615788E1,9.416847E0,3.302471E1,8.681453E0,1.7502068E2,3.00508E0,5.1928524E1,9.15313E1],"tree_param":{"num_deleted":"0","num_feature":"384","num_nodes":"103","size_leaf_vector":"1"}},{"base_weights":[1.8123502E-2,-2.8967148E-1,3.9090276E-1,1.671554E-1,-5.225376E-1,-3.894853E-2,6.3131905E-1,-5.974967E-1,3.3671984E-1,-8.0245394E-1,-1.1151688E-1,-9.245773E-1,1.6438833E-1,7.1554476E-1,-4.7953498E-1,-1.1825007E0,2.4526156E-1,4.7690427E-1,-5.384457E-1,-8.9997023E-1,1.8636626E-1,1.9367479E-1,-6.3640004E-1,4.6733096E-1,-1.2150936E0,6.7614543E-1,-1.855817E-1,1.9933468E-1,8.639909E-1,-1.5207614E0,2.0551102E-2,4.1325167E-1,-1.4119065E0,1.040615E0,-8.889004E-1,-7.215754E-2,7.15875E-1,-1.3713874E0,3.994907E-1,4.7455605E-2,-9.80471E-1,-7.070687E-2,5.6151646E-1,-2.0646176E-1,7.398868E-1,7.979832E-1,-9.015175E-1,6.372025E-2,-7.171753E-2,6.075784E-1,-1.4016814E0,-1.1886337E0,7.787325E-1,1.5128447E-1,-8.0932546E-1,3.9464408E-1,-1.1386019E0,1.0155224E0,5.015436E-1,-1.12949675E-2,-8.798719E-2,1.265582E0,-5.883388E-1,-2.9072419E-2,7.088696E-2,-7.8227326E-2,-1.0750205E-2,7.1590126E-2,-3.4206633E-2,-7.2823666E-2,3.1519454E-2,-7.381754E-2,7.018786E-3,-7.40723E-2,3.9012708E-2,-8.366499E-2,3.61853E-2,-5.599464E-2,5.190097E-2,4.395254E-2,-5.4785706E-2,-5.500054E-2,-2.202858E-2,4.2448E-2,-6.6035055E-2,-4.930117E-2,4.9717855E-3,5.253414E-2,-2.645289E-2,6.454828E-2,-7.433944E-2,2.9616041E-2,-5.2650362E-2,7.322984E-2,-2.0930907E-2,1.52134495E-2,-7.736547E-2,-7.76289E-2,-2.2321088E-2,-2.5385344E-2,4.632793E-2,2.6342595E-2,-2.7566938E-2,-6.2393E-2,-7.008876E-4,-3.2152444E-2,2.8202271E-2,4.3282527E-2,-8.0512114E-2,-7.333605E-2,5.1906615E-2,-1.167705E-2,4.6389636E-2,7.6180294E-2,1.7090295E-2,-8.2089566E-2,1.9699855E-2],"categories":[],"categories_nodes":[],"categories_segments":[],"categories_sizes":[],"default_left":[0,0,0,0,0,0,0,0,0,0,0,0,0,0,0,0,0,0,0,0,0,0,0,0,0,0,0,0,0,0,0,0,0,0,0,0,0,0,0,0,0,0,0,0,0,0,0,0,0,0,0,0,0,0,0,0,0,0,0,0,0,0,0,0,0,0,0,0,0,0,0,0,0,0,0,0,0,0,0,0,0,0,0,0,0,0,0,0,0,0,0,0,0,0,0,0,0,0,0,0,0,0,0,0,0,0,0,0,0,0,0,0,0,0,0,0,0],"id":13,"left_children":[1,3,5,